{"ip":0,"fr":60,"v":"5.1.20","assets":[],"layers":[{"ty":4,"nm":"Blog_Artboard 2","ip":0,"st":0,"ind":2,"hix":1,"ks":{"o":{"a":0,"k":100},"or":{"a":0,"k":[0,0,0]},"a":{"a":0,"k":[200,200,0]},"p":{"s":true,"x":{"a":0,"k":350},"y":{"a":1,"k":[{"t":0,"s":[309],"e":[257],"i":{"x":[1],"y":[1]},"o":{"x":[0],"y":[0]}},{"t":100,"s":[257],"e":[309],"i":{"x":[1],"y":[1]},"o":{"x":[0],"y":[0]}},{"t":200}]}},"rx":{"a":0,"k":0},"ry":{"a":0,"k":0},"rz":{"a":0,"k":0},"s":{"a":0,"k":[100,100,100]}},"shapes":[{"ty":"gr","nm":"Blog_Artboard 2 shape group","it":[{"ty":"sh","ks":{"a":0,"k":{"c":true,"v":[[303.267,82.316],[272.498,82.923],[241.726,82.316],[272.498,81.709]],"i":[[0,-0.33500000000000796],[16.990999999999985,0],[0,0.33499999999999375],[-16.996999999999986,0]],"o":[[0,0.33499999999999375],[-16.99799999999999,0],[0,-0.33499999999999375],[16.990999999999985,0]]}}},{"ty":"st","o":{"a":0,"k":0},"w":{"a":0,"k":0},"c":{"a":0,"k":[0,0,0,0]},"lc":3,"lj":1,"ml":1},{"ty":"fl","o":{"a":0,"k":100},"r":1,"c":{"a":0,"k":[0.21568627450980393,0.35294117647058826,0.39215686274509803,1]}},{"ty":"tr","o":{"a":0,"k":100},"a":{"a":0,"k":[0,0]},"s":{"a":0,"k":[100,100]},"p":{"a":0,"k":[0,0]},"r":{"a":0,"k":0}}]},{"ty":"gr","nm":"Blog_Artboard 2 shape group","it":[{"ty":"sh","ks":{"a":0,"k":{"c":true,"v":[[303.267,75.639],[272.498,76.246],[241.726,75.639],[272.498,75.032]],"i":[[0,-0.33499999999999375],[16.990999999999985,0],[0,0.33499999999999375],[-16.996999999999986,0]],"o":[[0,0.33499999999999375],[-16.99799999999999,0],[0,-0.33499999999999375],[16.990999999999985,0.0010000000000047748]]}}},{"ty":"st","o":{"a":0,"k":0},"w":{"a":0,"k":0},"c":{"a":0,"k":[0,0,0,0]},"lc":3,"lj":1,"ml":1},{"ty":"fl","o":{"a":0,"k":100},"r":1,"c":{"a":0,"k":[0.21568627450980393,0.35294117647058826,0.39215686274509803,1]}},{"ty":"tr","o":{"a":0,"k":100},"a":{"a":0,"k":[0,0]},"s":{"a":0,"k":[100,100]},"p":{"a":0,"k":[0,0]},"r":{"a":0,"k":0}}]},{"ty":"gr","nm":"Blog_Artboard 2 shape group","it":[{"ty":"sh","ks":{"a":0,"k":{"c":true,"v":[[303.267,68.963],[272.498,69.57],[241.726,68.963],[272.498,68.356]],"i":[[0,-0.33499999999999375],[16.990999999999985,0],[0,0.33499999999999375],[-16.996999999999986,0]],"o":[[0,0.33499999999999375],[-16.99799999999999,0],[0,-0.33499999999999375],[16.990999999999985,0]]}}},{"ty":"st","o":{"a":0,"k":0},"w":{"a":0,"k":0},"c":{"a":0,"k":[0,0,0,0]},"lc":3,"lj":1,"ml":1},{"ty":"fl","o":{"a":0,"k":100},"r":1,"c":{"a":0,"k":[0.21568627450980393,0.35294117647058826,0.39215686274509803,1]}},{"ty":"tr","o":{"a":0,"k":100},"a":{"a":0,"k":[0,0]},"s":{"a":0,"k":[100,100]},"p":{"a":0,"k":[0,0]},"r":{"a":0,"k":0}}]},{"ty":"gr","nm":"Blog_Artboard 2 shape group","it":[{"ty":"sh","ks":{"a":0,"k":{"c":true,"v":[[303.267,62.286],[272.498,62.893],[241.726,62.286],[272.498,61.679]],"i":[[0,-0.33500000000000085],[16.990999999999985,0],[0,0.33500000000000085],[-16.996999999999986,0]],"o":[[0,0.33500000000000085],[-16.99799999999999,0],[0,-0.33500000000000085],[16.990999999999985,0]]}}},{"ty":"st","o":{"a":0,"k":0},"w":{"a":0,"k":0},"c":{"a":0,"k":[0,0,0,0]},"lc":3,"lj":1,"ml":1},{"ty":"fl","o":{"a":0,"k":100},"r":1,"c":{"a":0,"k":[0.21568627450980393,0.35294117647058826,0.39215686274509803,1]}},{"ty":"tr","o":{"a":0,"k":100},"a":{"a":0,"k":[0,0]},"s":{"a":0,"k":[100,100]},"p":{"a":0,"k":[0,0]},"r":{"a":0,"k":0}}]},{"ty":"gr","nm":"Blog_Artboard 2 shape group","it":[{"ty":"sh","ks":{"a":0,"k":{"c":true,"v":[[255.224,38.067],[255.64999999999998,37.524],[257.01399999999995,36.019],[263.506,31.662999999999997],[268.991,30.110999999999997],[275.789,30.318999999999996],[283.061,33.260999999999996],[289.359,39.443],[289.15999999999997,39.41],[295.80999999999995,37.128],[303.30099999999993,38.323],[310.6379999999999,41.688],[317.4409999999999,46.82],[322.6959999999999,54.047],[324.1919999999999,58.44],[324.5059999999999,63.165],[321.4699999999999,72.326],[318.0549999999999,75.973],[313.4729999999999,78.16499999999999],[313.5789999999999,77.85499999999999],[315.6659999999999,82.291],[315.7879999999999,87.277],[311.1449999999999,96.233],[301.89699999999993,100.95700000000001],[291.24999999999994,101.271],[287.40899999999993,100.59],[287.6089999999999,100.522],[261.35599999999994,109.85000000000001],[249.03699999999995,103.805],[241.31699999999995,93.14500000000001],[241.55099999999996,93.25200000000001],[228.50899999999996,91.888],[220.87799999999996,82.21700000000001],[222.45699999999997,70.81700000000001],[230.15399999999997,63.592000000000006],[230.06899999999996,63.742000000000004],[230.55299999999997,54.515],[233.90499999999997,47],[236.22599999999997,44.086],[238.82599999999996,41.824],[244.18299999999996,39.132],[252.34899999999996,37.91],[255.224,38.067],[254.494,38.04],[252.351,37.992],[244.233,39.279999999999994],[238.937,41.97899999999999],[236.376,44.22899999999999],[234.09,47.12599999999999],[230.799,54.57999999999999],[230.348,63.70299999999999],[230.364,63.80999999999999],[230.263,63.85299999999999],[222.73000000000002,70.963],[221.20200000000003,82.142],[228.68200000000002,91.583],[241.42900000000003,92.90599999999999],[241.59800000000004,92.847],[241.66400000000004,93.012],[249.28800000000004,103.515],[261.43500000000006,109.466],[287.29900000000004,100.268],[287.37800000000004,100.174],[287.50000000000006,100.2],[291.30400000000003,100.87400000000001],[301.812,100.56700000000001],[310.867,95.95100000000001],[315.40000000000003,87.218],[313.278,78.102],[313.091,77.86800000000001],[313.384,77.79100000000001],[317.827,75.668],[321.156,72.117],[324.139,63.145],[323.837,58.516000000000005],[322.37399999999997,54.202000000000005],[317.20199999999994,47.068000000000005],[310.47399999999993,41.974000000000004],[303.2049999999999,38.621],[295.8229999999999,37.423],[289.3309999999999,39.627],[289.2129999999999,39.718],[289.1319999999999,39.594],[282.93099999999987,33.469],[275.7479999999999,30.531000000000002],[269.01799999999986,30.294000000000004],[263.56599999999986,31.802000000000003],[257.06899999999985,36.076],[255.68199999999985,37.55]],"i":[[0,0],[-0.2869999999999777,0.35600000000000165],[-0.6289999999999623,0.6370000000000005],[-3.156000000000006,1.368000000000002],[-2.076000000000022,0.2940000000000005],[-2.408999999999992,-0.5059999999999967],[-2.3670000000000186,-1.4929999999999986],[-1.7169999999999845,-2.6189999999999998],[0,0],[-2.4639999999999986,0.06199999999999761],[-2.4839999999999804,-0.8220000000000027],[-2.3929999999999723,-1.3980000000000032],[-2.08299999999997,-2.053999999999995],[-1.3310000000000173,-2.7620000000000005],[-0.32900000000000773,-1.5380000000000038],[0.1279999999999859,-1.5960000000000036],[1.850999999999999,-2.756999999999991],[1.3760000000000332,-0.9920000000000044],[1.6650000000000205,-0.43599999999999284],[0,0],[-0.35899999999998045,-1.6210000000000093],[0.26099999999996726,-1.663000000000011],[2.454999999999984,-2.445999999999998],[3.444000000000017,-0.7580000000000098],[3.5609999999999786,0.4590000000000032],[1.2590000000000146,0.26899999999999125],[0,0],[9.247000000000014,1.8819999999999908],[3.445999999999998,2.9309999999999974],[1.5970000000000084,4.027000000000001],[0,0],[3.790999999999997,2.109000000000009],[0.9329999999999927,3.992999999999995],[-1.7560000000000002,3.3030000000000115],[-3.1539999999999964,1.3300000000000054],[0,0],[-0.703000000000003,2.842000000000006],[-1.443000000000012,2.136000000000003],[-0.8050000000000068,0.8850000000000051],[-0.9089999999999918,0.6270000000000024],[-1.7079999999999984,0.5679999999999978],[-1.877999999999986,0.012000000000000455],[0,0.0009999999999976694],[0.4819999999999993,0.02400000000000091],[0.9420000000000073,-0.001999999999995339],[3.414999999999992,-1.1299999999999955],[1.7589999999999861,-1.2989999999999995],[0.8290000000000077,-0.8449999999999989],[0.6970000000000027,-1.0719999999999956],[0.7179999999999893,-2.8130000000000024],[-0.4800000000000182,-3.192999999999998],[0,0],[0,0],[1.72199999999998,-3.26700000000001],[-0.9380000000000166,-3.896000000000001],[-3.7569999999999766,-2.040999999999997],[-4.299000000000007,1.4909999999999997],[0,0],[0,0],[-3.4069999999999823,-2.8900000000000006],[-4.557000000000016,-0.9109999999999872],[-6.34699999999998,7.614999999999995],[0,0],[0,0],[-1.2869999999999777,-0.1570000000000107],[-3.4049999999999727,0.7450000000000045],[-2.4139999999999873,2.3769999999999953],[-0.51400000000001,3.243000000000009],[1.9800000000000182,2.4819999999999993],[0,0],[0,0],[-1.322999999999979,0.9710000000000036],[-0.9180000000000064,1.3260000000000076],[-0.20499999999998408,3.118000000000002],[0.2680000000000291,1.5079999999999956],[0.6240000000000236,1.3719999999999999],[2.0740000000000123,2.0090000000000003],[2.3670000000000186,1.3950000000000031],[2.4560000000000173,0.8250000000000028],[2.4180000000000064,-0.08200000000000074],[1.771000000000015,-1.3659999999999997],[0,0],[0,0],[2.319000000000017,1.5030000000000001],[2.3829999999999814,0.4770000000000003],[2.05600000000004,-0.2630000000000017],[1.565999999999974,-0.6609999999999978],[1.2830000000000155,-1.222999999999999],[0.2880000000000109,-0.35299999999999443]],"o":[[0,0],[0.27899999999999636,-0.3620000000000019],[1.2699999999999818,-1.2449999999999974],[1.5720000000000027,-0.6759999999999984],[2.072999999999979,-0.2759999999999998],[2.4110000000000014,0.4720000000000013],[2.350999999999999,1.5120000000000005],[0,0],[1.8170000000000073,-1.411999999999999],[2.464999999999975,-0.09000000000000341],[2.48599999999999,0.828000000000003],[2.38900000000001,1.402000000000001],[2.100999999999999,2.0290000000000035],[0.6370000000000005,1.3950000000000031],[0.27600000000001046,1.5409999999999968],[-0.20499999999998408,3.1799999999999997],[-0.9379999999999882,1.3589999999999947],[-1.36099999999999,1.0010000000000048],[0,0],[1.011000000000024,1.2870000000000061],[0.36299999999999955,1.6219999999999999],[-0.52800000000002,3.331000000000003],[-2.4879999999999995,2.448999999999998],[-3.4630000000000223,0.7579999999999956],[-1.3000000000000114,-0.15900000000000603],[0,0],[-6.451999999999998,7.736000000000004],[-4.629000000000019,-0.929000000000002],[-3.4509999999999934,-2.9329999999999927],[0,0],[-4.421999999999997,1.5259999999999962],[-3.8300000000000125,-2.087999999999994],[-0.9519999999999982,-3.9909999999999997],[1.759999999999991,-3.320999999999998],[0,0],[-0.47700000000000387,-3.2349999999999994],[0.7350000000000136,-2.8389999999999986],[0.7079999999999984,-1.0790000000000006],[0.842000000000013,-0.8509999999999991],[1.7839999999999918,-1.3029999999999973],[3.4470000000000027,-1.1139999999999972],[1.893000000000029,0.02200000000000557],[0,0],[-0.4819999999999993,-0.031999999999996476],[-1.8739999999999952,0.036999999999999034],[-1.693000000000012,0.5750000000000028],[-0.8959999999999866,0.625],[-0.7930000000000064,0.8810000000000002],[-1.4209999999999923,2.121000000000002],[-0.686000000000007,2.8149999999999977],[0,0],[0,0],[-3.0860000000000127,1.3120000000000047],[-1.7179999999999893,3.2489999999999952],[0.9170000000000016,3.8940000000000055],[3.7179999999999893,2.0619999999999976],[0,0],[0,0],[1.578000000000003,3.965999999999994],[3.4010000000000105,2.888999999999996],[9.100000000000023,1.850999999999999],[0,0],[0,0],[1.247000000000014,0.26600000000000534],[3.5249999999999773,0.4539999999999935],[3.3829999999999814,-0.7420000000000044],[2.391999999999996,-2.3810000000000002],[0.535000000000025,-3.2279999999999944],[0,0],[0,0],[1.6129999999999995,-0.4230000000000018],[1.336999999999989,-0.9609999999999985],[1.8120000000000118,-2.6910000000000025],[0.1279999999999859,-1.5649999999999977],[-0.3190000000000168,-1.5009999999999977],[-1.3059999999999832,-2.719999999999999],[-2.055000000000007,-2.033999999999999],[-2.3700000000000045,-1.3909999999999982],[-2.4560000000000173,-0.8190000000000026],[-2.4189999999999827,0.054999999999999716],[0,0],[0,0],[-1.6859999999999786,-2.588000000000001],[-2.3360000000000127,-1.4849999999999994],[-2.382000000000005,-0.5109999999999992],[-2.0600000000000023,0.28000000000000114],[-3.1429999999999723,1.3369999999999997],[-0.6349999999999909,0.625],[-0.2979999999998597,0.34600000000000364]]}}},{"ty":"st","o":{"a":0,"k":0},"w":{"a":0,"k":0},"c":{"a":0,"k":[0,0,0,0]},"lc":3,"lj":1,"ml":1},{"ty":"fl","o":{"a":0,"k":100},"r":1,"c":{"a":0,"k":[0.10196078431372549,0.1803921568627451,0.20784313725490197,1]}},{"ty":"tr","o":{"a":0,"k":100},"a":{"a":0,"k":[0,0]},"s":{"a":0,"k":[100,100]},"p":{"a":0,"k":[0,0]},"r":{"a":0,"k":0}}]},{"ty":"gr","nm":"Blog_Artboard 2 shape group","it":[{"ty":"sh","ks":{"a":0,"k":{"c":true,"v":[[255.224,38.067],[236.267,44.193],[230.208,63.724],[221.56,83.893],[241.489,93.08],[262.383,109.853],[287.453,100.39699999999999],[309.174,97.63799999999999],[313.42699999999996,77.97999999999999],[323.65999999999997,57.05099999999999],[305.65,39.37099999999999],[289.243,39.51999999999999],[272.60699999999997,30.026999999999987]],"i":[[4.076000000000022,-5.231999999999999],[4.818999999999988,-5.150999999999996],[-1.0579999999999927,-6.973999999999997],[-2.9039999999999964,-7.556000000000012],[-7.632000000000005,2.700000000000003],[-9.22799999999998,-1.468999999999994],[-5.9599999999999795,7.1980000000000075],[-6.160000000000025,4.308000000000007],[4.694000000000017,5.870999999999995],[2.5049999999999955,8.323999999999998],[8.007999999999981,3.381999999999998],[4.515999999999963,-3.5519999999999996],[6.626000000000033,0.28300000000000125]],"o":[[-7.027999999999992,-0.5940000000000012],[-4.818999999999988,5.149999999999999],[-7.475999999999999,3.1060000000000016],[2.9039999999999964,7.555999999999997],[3.430000000000007,8.691999999999993],[9.228000000000009,1.468999999999994],[7.331999999999994,1.6569999999999965],[6.160000000000025,-4.308000000000007],[8.446000000000026,-2.057000000000002],[-2.5049999999999955,-8.323999999999998],[-5.293000000000006,-2.235999999999997],[-3.613999999999976,-5.561],[-6.623999999999967,-0.28299999999998704]]}}},{"ty":"st","o":{"a":0,"k":0},"w":{"a":0,"k":0},"c":{"a":0,"k":[0,0,0,0]},"lc":3,"lj":1,"ml":1},{"ty":"fl","o":{"a":0,"k":100},"r":1,"c":{"a":0,"k":[0.9607843137254902,0.9607843137254902,0.9607843137254902,1]}},{"ty":"tr","o":{"a":0,"k":100},"a":{"a":0,"k":[0,0]},"s":{"a":0,"k":[100,100]},"p":{"a":0,"k":[0,0]},"r":{"a":0,"k":0}}]},{"ty":"gr","nm":"Blog_Artboard 2 shape group","it":[{"ty":"sh","ks":{"a":0,"k":{"c":false,"v":[[232.792,105.354],[230.77700000000002,111.984],[237.687,111.469],[234.71200000000002,105.211]],"i":[[0,0],[-1.6980000000000075,-2.120999999999995],[-1.3640000000000043,2.3490000000000038],[2.6829999999999927,0.4239999999999924]],"o":[[-2.5900000000000034,0.8169999999999931],[1.6980000000000075,2.120999999999995],[1.365000000000009,-2.3490000000000038],[0,0]]}}},{"ty":"st","o":{"a":0,"k":0},"w":{"a":0,"k":0},"c":{"a":0,"k":[0,0,0,0]},"lc":3,"lj":1,"ml":1},{"ty":"fl","o":{"a":0,"k":100},"r":1,"c":{"a":0,"k":[0.9254901960784314,0.9254901960784314,0.9254901960784314,1]}},{"ty":"tr","o":{"a":0,"k":100},"a":{"a":0,"k":[0,0]},"s":{"a":0,"k":[100,100]},"p":{"a":0,"k":[0,0]},"r":{"a":0,"k":0}}]},{"ty":"gr","nm":"Blog_Artboard 2 shape group","it":[{"ty":"sh","ks":{"a":0,"k":{"c":false,"v":[[222.289,120.617],[220.53199999999998,126.396],[226.55599999999998,125.947],[223.962,120.492]],"i":[[0,0],[-1.4799999999999898,-1.847999999999999],[-1.1899999999999977,2.048000000000002],[2.3389999999999986,0.3689999999999998]],"o":[[-2.2580000000000098,0.7120000000000033],[1.4799999999999898,1.8490000000000038],[1.188999999999993,-2.046999999999997],[0,0]]}}},{"ty":"st","o":{"a":0,"k":0},"w":{"a":0,"k":0},"c":{"a":0,"k":[0,0,0,0]},"lc":3,"lj":1,"ml":1},{"ty":"fl","o":{"a":0,"k":100},"r":1,"c":{"a":0,"k":[0.9254901960784314,0.9254901960784314,0.9254901960784314,1]}},{"ty":"tr","o":{"a":0,"k":100},"a":{"a":0,"k":[0,0]},"s":{"a":0,"k":[100,100]},"p":{"a":0,"k":[0,0]},"r":{"a":0,"k":0}}]},{"ty":"gr","nm":"Blog_Artboard 2 shape group","it":[{"ty":"sh","ks":{"a":0,"k":{"c":true,"v":[[206.779,130.58],[206.998,131.092],[207.34799999999998,132.566],[207.10699999999997,137.548],[204.95299999999997,142.048],[203.94499999999996,143.179],[203.50999999999996,143.526],[204.72099999999998,141.881],[206.71499999999997,137.449],[207.06499999999997,132.603]],"i":[[-0.0689999999999884,0.01999999999998181],[-0.11599999999998545,-0.33899999999999864],[-0.103999999999985,-0.6329999999999814],[0.47800000000000864,-1.9099999999999966],[0.7860000000000014,-1.009999999999991],[0.2680000000000007,-0.23799999999999955],[0.019000000000005457,0.01999999999998181],[-0.7080000000000268,1.0349999999999966],[-0.4720000000000084,1.8519999999999754],[0.13599999999999568,1.2439999999999998]],"o":[[0.026999999999986812,-0.008000000000009777],[0.1220000000000141,0.33600000000001273],[0.21299999999999386,1.2620000000000005],[-0.48599999999999,1.9089999999999918],[-0.3919999999999959,0.507000000000005],[-0.26300000000000523,0.242999999999995],[-0.05099999999998772,-0.05099999999998772],[0.710000000000008,-1.0300000000000011],[0.46399999999999864,-1.8530000000000086],[-0.13299999999998136,-1.2480000000000189]]}}},{"ty":"st","o":{"a":0,"k":0},"w":{"a":0,"k":0},"c":{"a":0,"k":[0,0,0,0]},"lc":3,"lj":1,"ml":1},{"ty":"fl","o":{"a":0,"k":100},"r":1,"c":{"a":0,"k":[0.21568627450980393,0.35294117647058826,0.39215686274509803,1]}},{"ty":"tr","o":{"a":0,"k":100},"a":{"a":0,"k":[0,0]},"s":{"a":0,"k":[100,100]},"p":{"a":0,"k":[0,0]},"r":{"a":0,"k":0}}]},{"ty":"gr","nm":"Blog_Artboard 2 shape group","it":[{"ty":"sh","ks":{"a":0,"k":{"c":true,"v":[[206.521,130.39],[206.535,132.22899999999998],[205.418,136.529],[203.059,140.29399999999998],[201.713,141.546],[205.047,136.369]],"i":[[-0.1349999999999909,-0.01799999999997226],[0.103999999999985,-1.1359999999999957],[0.688999999999993,-1.6050000000000182],[0.7530000000000143,-0.8519999999999754],[0.030000000000001137,0.033999999999991815],[-1.3379999999999939,3.1599999999999966]],"o":[[0.044999999999987494,-0.0010000000000047748],[-0.10200000000000387,1.1330000000000098],[-0.6939999999999884,1.6030000000000086],[-0.7539999999999907,0.8559999999999945],[-0.10599999999999454,-0.08600000000001273],[1.3770000000000095,-3.1430000000000007]]}}},{"ty":"st","o":{"a":0,"k":0},"w":{"a":0,"k":0},"c":{"a":0,"k":[0,0,0,0]},"lc":3,"lj":1,"ml":1},{"ty":"fl","o":{"a":0,"k":100},"r":1,"c":{"a":0,"k":[0.21568627450980393,0.35294117647058826,0.39215686274509803,1]}},{"ty":"tr","o":{"a":0,"k":100},"a":{"a":0,"k":[0,0]},"s":{"a":0,"k":[100,100]},"p":{"a":0,"k":[0,0]},"r":{"a":0,"k":0}}]},{"ty":"gr","nm":"Blog_Artboard 2 shape group","it":[{"ty":"sh","ks":{"a":0,"k":{"c":true,"v":[[215.116,119.887],[212.96300000000002,119.22],[207.72000000000003,120.009],[203.66800000000003,123.535],[202.39100000000005,125.417],[202.60400000000004,124.836],[203.43500000000003,123.371],[207.54100000000003,119.648],[213.02200000000002,118.941],[214.609,119.533]],"i":[[0.012999999999976808,-0.01999999999999602],[1.3689999999999998,0.2459999999999951],[1.8940000000000055,-0.9440000000000026],[0.820999999999998,-1.1159999999999997],[0.06099999999997863,0.0309999999999917],[-0.16599999999999682,0.3610000000000042],[-0.39399999999997704,0.5949999999999989],[-1.9819999999999993,0.9939999999999998],[-1.3889999999999816,-0.34200000000001296],[-0.34699999999998,-0.1979999999999933]],"o":[[-0.03499999999999659,0.07099999999999795],[-1.3499999999999943,-0.25799999999999557],[-1.8950000000000102,0.9500000000000028],[-0.8290000000000077,1.125],[-0.022999999999996135,-0.01099999999999568],[0.16599999999999682,-0.3610000000000042],[0.7769999999999868,-1.179000000000002],[1.9869999999999948,-0.9909999999999997],[0.7009999999999934,0.16500000000000625],[0.34699999999998,0.19400000000000261]]}}},{"ty":"st","o":{"a":0,"k":0},"w":{"a":0,"k":0},"c":{"a":0,"k":[0,0,0,0]},"lc":3,"lj":1,"ml":1},{"ty":"fl","o":{"a":0,"k":100},"r":1,"c":{"a":0,"k":[0.21568627450980393,0.35294117647058826,0.39215686274509803,1]}},{"ty":"tr","o":{"a":0,"k":100},"a":{"a":0,"k":[0,0]},"s":{"a":0,"k":[100,100]},"p":{"a":0,"k":[0,0]},"r":{"a":0,"k":0}}]},{"ty":"gr","nm":"Blog_Artboard 2 shape group","it":[{"ty":"sh","ks":{"a":0,"k":{"c":true,"v":[[208.278,132.982],[207.451,131.167],[204.575,127.4],[200.535,124.91900000000001],[198.646,124.28000000000002],[199.189,124.31000000000002],[200.63,124.64900000000002],[204.846,127.09900000000002],[207.71,131.04500000000002],[208.193,132.44500000000002]],"i":[[0.027000000000015234,-0.007000000000005002],[0.5500000000000114,1.093999999999994],[1.3810000000000002,1.252999999999986],[1.1440000000000055,0.4309999999999974],[-0.012999999999976808,0.07200000000000273],[-0.34600000000000364,-0.04600000000000648],[-0.5970000000000084,-0.1880000000000024],[-1.4330000000000211,-1.2890000000000015],[-0.4900000000000091,-1.1519999999999868],[-0.0730000000000075,-0.34300000000001774]],"o":[[-0.06999999999999318,0.020000000000010232],[-0.5440000000000111,-1.093999999999994],[-1.3870000000000005,-1.2469999999999999],[-1.1440000000000055,-0.43600000000000705],[0.003999999999990678,-0.028000000000005798],[0.3480000000000132,0.0379999999999967],[1.1949999999999932,0.3709999999999951],[1.4269999999999925,1.2949999999999875],[0.24799999999999045,0.5749999999999886],[0.08099999999998886,0.339999999999975]]}}},{"ty":"st","o":{"a":0,"k":0},"w":{"a":0,"k":0},"c":{"a":0,"k":[0,0,0,0]},"lc":3,"lj":1,"ml":1},{"ty":"fl","o":{"a":0,"k":100},"r":1,"c":{"a":0,"k":[1,0.30980392156862746,0.3568627450980392,1]}},{"ty":"tr","o":{"a":0,"k":100},"a":{"a":0,"k":[0,0]},"s":{"a":0,"k":[100,100]},"p":{"a":0,"k":[0,0]},"r":{"a":0,"k":0}}]},{"ty":"gr","nm":"Blog_Artboard 2 shape group","it":[{"ty":"sh","ks":{"a":0,"k":{"c":false,"v":[[186.496,123.487],[179.978,124.199],[174.342,127.372],[172.78500000000003,133.469],[177.73400000000004,136.921],[182.55200000000005,135.965],[186.42700000000005,138.542],[190.85500000000005,137.321],[194.79800000000006,140.106],[196.60700000000006,144.904],[198.91000000000005,147.095],[201.69700000000006,146.311],[203.32900000000006,143.81300000000002],[202.41500000000008,131.496],[192.0490000000001,124.781]],"i":[[0,0],[2.125,-0.5280000000000058],[1.4449999999999932,-1.6440000000000055],[-0.625,-2.0989999999999895],[-2.170000000000016,0.28999999999999204],[-1.5900000000000034,-0.48500000000001364],[-1.5449999999999875,-0.2849999999999966],[-1.5459999999999923,0.13400000000001455],[-0.7590000000000146,-1.5339999999999918],[-0.7620000000000005,-1.5320000000000107],[-1.0589999999999975,-0.27299999999999613],[-0.757000000000005,0.6589999999999918],[-0.3790000000000191,0.9299999999999784],[2.174999999999983,3.670000000000016],[4.238999999999976,0.48499999999999943]],"o":[[-2.187999999999988,0.09099999999999397],[-2.125,0.5280000000000058],[-1.4449999999999932,1.644999999999996],[0.625,2.098000000000013],[1.6479999999999961,-0.22100000000000364],[1.502999999999986,0.4579999999999984],[1.5250000000000057,0.2820000000000107],[1.7050000000000125,-0.14799999999999613],[0.7589999999999861,1.5339999999999918],[0.48699999999999477,0.9790000000000134],[0.9720000000000084,0.2510000000000048],[0.757000000000005,-0.6589999999999918],[1.6100000000000136,-3.9509999999999934],[-2.1750000000000114,-3.6700000000000017],[0,0]]}}},{"ty":"st","o":{"a":0,"k":0},"w":{"a":0,"k":0},"c":{"a":0,"k":[0,0,0,0]},"lc":3,"lj":1,"ml":1},{"ty":"fl","o":{"a":0,"k":100},"r":1,"c":{"a":0,"k":[0.10196078431372549,0.1803921568627451,0.20784313725490197,1]}},{"ty":"tr","o":{"a":0,"k":100},"a":{"a":0,"k":[0,0]},"s":{"a":0,"k":[100,100]},"p":{"a":0,"k":[0,0]},"r":{"a":0,"k":0}}]},{"ty":"gr","nm":"Blog_Artboard 2 shape group","it":[{"ty":"sh","ks":{"a":0,"k":{"c":true,"v":[[204.574,152.868],[204.984,153.15699999999998],[206.079,154.051],[209.937,157.32799999999997],[210.067,157.438],[209.957,157.57],[205.12199999999999,163.71099999999998],[203.91199999999998,165.184],[203.581,165.573],[203.558,165.06300000000002],[203.19899999999998,155.888],[203.134,153.162],[203.16099999999997,152.169],[203.27999999999997,153.155],[203.46699999999998,155.875],[203.95899999999997,165.044],[203.60599999999997,164.924],[204.80599999999995,163.458],[209.69599999999994,157.34799999999998],[209.71599999999995,157.58999999999997],[205.95099999999996,154.20299999999997],[204.91699999999997,153.23599999999996]],"i":[[-0.012000000000000455,0.014000000000010004],[-0.2560000000000002,-0.20199999999999818],[-0.4339999999999975,-0.3540000000000134],[-1.5560000000000116,-1.3219999999999743],[0,0],[0,0],[1.7980000000000018,-2.2560000000000002],[0.396000000000015,-0.4660000000000082],[0,0],[0,0],[0.07099999999999795,2.3130000000000166],[0.016999999999995907,0.7129999999999939],[-0.025999999999982037,0.0010000000000047748],[-0.0519999999999925,-0.6379999999999768],[-0.07500000000001705,-1.0979999999999848],[-0.17499999999998295,-3.63900000000001],[0,0],[-0.41100000000000136,0.5020000000000095],[-1.4769999999999754,1.7120000000000175],[0,0],[0.964999999999975,0.867999999999995],[0.28199999999998226,0.26400000000001]],"o":[[0.012000000000000455,-0.014000000000010004],[0.2990000000000066,0.24399999999999977],[0.9890000000000043,0.8400000000000034],[0,0],[0,0],[-1.436000000000007,1.7239999999999895],[-0.40799999999998704,0.5089999999999861],[0,0],[0,0],[-0.16300000000001091,-3.6399999999999864],[-0.02600000000001046,-1.0999999999999943],[-0.007000000000005002,-0.6399999999999864],[0.02600000000001046,-0.0010000000000047748],[0.049000000000006594,0.7110000000000127],[0.14300000000000068,2.3100000000000023],[0,0],[0.38399999999998613,-0.4689999999999941],[1.7930000000000064,-2.2489999999999952],[0,0],[-1.5190000000000055,-1.3660000000000139],[-0.4099999999999966,-0.3830000000000098],[-0.23599999999996157,-0.22599999999997067]]}}},{"ty":"st","o":{"a":0,"k":0},"w":{"a":0,"k":0},"c":{"a":0,"k":[0,0,0,0]},"lc":3,"lj":1,"ml":1},{"ty":"fl","o":{"a":0,"k":100},"r":1,"c":{"a":0,"k":[0.21568627450980393,0.35294117647058826,0.39215686274509803,1]}},{"ty":"tr","o":{"a":0,"k":100},"a":{"a":0,"k":[0,0]},"s":{"a":0,"k":[100,100]},"p":{"a":0,"k":[0,0]},"r":{"a":0,"k":0}}]},{"ty":"gr","nm":"Blog_Artboard 2 shape group","it":[{"ty":"sh","ks":{"a":0,"k":{"c":true,"v":[[202.131,151.058],[202.91,150.93599999999998],[203.677,149.409],[202.72299999999998,147.975],[201.928,147.81199999999998],[202.822,147.66299999999998],[203.696,148.20799999999997],[204.14,149.38499999999996],[203.021,151.24499999999998]],"i":[[-0.04800000000000182,0.03700000000000614],[-0.43199999999998795,0.1980000000000075],[0.045000000000015916,0.7299999999999898],[0.45000000000001705,0.16200000000000614],[0.018000000000000682,0.06900000000001683],[-0.5900000000000034,-0.13300000000000978],[-0.25799999999998136,-0.3089999999999975],[-0.02199999999999136,-0.44999999999998863],[0.617999999999995,-0.14100000000001955]],"o":[[0.025000000000005684,-0.06299999999998818],[0.42500000000001137,-0.16900000000001114],[-0.025000000000005684,-0.7410000000000139],[-0.44700000000000273,-0.18299999999999272],[-0.03100000000000591,-0.04400000000001114],[0.2839999999999918,0.06700000000000728],[0.2560000000000002,0.30400000000000205],[0.06499999999999773,0.9010000000000105],[-0.6089999999999804,0.160000000000025]]}}},{"ty":"st","o":{"a":0,"k":0},"w":{"a":0,"k":0},"c":{"a":0,"k":[0,0,0,0]},"lc":3,"lj":1,"ml":1},{"ty":"fl","o":{"a":0,"k":100},"r":1,"c":{"a":0,"k":[1,0.6039215686274509,0.4235294117647059,1]}},{"ty":"tr","o":{"a":0,"k":100},"a":{"a":0,"k":[0,0]},"s":{"a":0,"k":[100,100]},"p":{"a":0,"k":[0,0]},"r":{"a":0,"k":0}}]},{"ty":"gr","nm":"Blog_Artboard 2 shape group","it":[{"ty":"sh","ks":{"a":0,"k":{"c":false,"v":[[201.506,145.911],[203.843,146.028],[205.69299999999998,150.947],[201.23199999999997,153.724]],"i":[[0,0],[-0.7129999999999939,-0.4119999999999777],[0.6090000000000089,-1.7970000000000255],[1.8810000000000002,0.24600000000000932]],"o":[[0.6769999999999925,-0.4689999999999941],[1.6430000000000007,0.9499999999999886],[-0.6100000000000136,1.796999999999997],[0,0]]}}},{"ty":"st","o":{"a":0,"k":0},"w":{"a":0,"k":0},"c":{"a":0,"k":[0,0,0,0]},"lc":3,"lj":1,"ml":1},{"ty":"fl","o":{"a":0,"k":100},"r":1,"c":{"a":0,"k":[1,0.7490196078431373,0.615686274509804,1]}},{"ty":"tr","o":{"a":0,"k":100},"a":{"a":0,"k":[0,0]},"s":{"a":0,"k":[100,100]},"p":{"a":0,"k":[0,0]},"r":{"a":0,"k":0}}]},{"ty":"gr","nm":"Blog_Artboard 2 shape group","it":[{"ty":"sh","ks":{"a":0,"k":{"c":true,"v":[[175.514,140.288],[177.603,140.264],[179.69,140.15900000000002],[179.263,139.47100000000003],[177.565,139.01200000000003],[175.899,139.57500000000002]],"i":[[-0.09499999999999886,-0.13700000000000045],[-1.0219999999999914,0.01300000000000523],[-0.19999999999998863,0.29299999999997794],[0.3779999999999859,0.26499999999998636],[0.7019999999999982,-0.020999999999986585],[0.35499999999998977,-0.2869999999999777]],"o":[[0.21700000000001296,0.28000000000000114],[1.0219999999999914,-0.05000000000001137],[0.08699999999998909,-0.1419999999999959],[-0.3720000000000141,-0.26400000000001],[-0.7019999999999982,0.02199999999999136],[-0.36199999999999477,0.2879999999999825]]}}},{"ty":"st","o":{"a":0,"k":0},"w":{"a":0,"k":0},"c":{"a":0,"k":[0,0,0,0]},"lc":3,"lj":1,"ml":1},{"ty":"fl","o":{"a":0,"k":100},"r":1,"c":{"a":0,"k":[0.10196078431372549,0.1803921568627451,0.20784313725490197,1]}},{"ty":"tr","o":{"a":0,"k":100},"a":{"a":0,"k":[0,0]},"s":{"a":0,"k":[100,100]},"p":{"a":0,"k":[0,0]},"r":{"a":0,"k":0}}]},{"ty":"gr","nm":"Blog_Artboard 2 shape group","it":[{"ty":"sh","ks":{"a":0,"k":{"c":true,"v":[[186.914,140.635],[189.71499999999997,140.986],[192.52499999999998,141.254],[191.93499999999997,140.47],[189.85199999999998,139.74099999999999],[187.65999999999997,139.998]],"i":[[-0.0519999999999925,-0.1599999999999966],[-1.4469999999999743,-0.17500000000001137],[-0.19200000000000728,0.3009999999999877],[0.4720000000000084,0.32499999999998863],[0.8689999999999998,0.09700000000000841],[0.5270000000000152,-0.21399999999999864]],"o":[[0.1220000000000141,0.33500000000000796],[1.4509999999999934,0.14500000000001023],[0.08600000000001273,-0.14400000000000546],[-0.4679999999999893,-0.3240000000000123],[-0.8689999999999998,-0.09499999999999886],[-0.5309999999999775,0.21399999999999864]]}}},{"ty":"st","o":{"a":0,"k":0},"w":{"a":0,"k":0},"c":{"a":0,"k":[0,0,0,0]},"lc":3,"lj":1,"ml":1},{"ty":"fl","o":{"a":0,"k":100},"r":1,"c":{"a":0,"k":[0.10196078431372549,0.1803921568627451,0.20784313725490197,1]}},{"ty":"tr","o":{"a":0,"k":100},"a":{"a":0,"k":[0,0]},"s":{"a":0,"k":[100,100]},"p":{"a":0,"k":[0,0]},"r":{"a":0,"k":0}}]},{"ty":"gr","nm":"Blog_Artboard 2 shape group","it":[{"ty":"sh","ks":{"a":0,"k":{"c":true,"v":[[186.623,152.798],[185.274,155.076],[182.692,156.066],[183.612,156.342],[185.768,155.591],[186.814,153.681]],"i":[[0.09100000000000819,-0.008000000000009777],[1.1459999999999866,-0.9499999999999886],[0.009999999999990905,-0.18700000000001182],[-0.6019999999999754,-0.016000000000019554],[-0.7019999999999982,0.5810000000000173],[-0.04599999999999227,0.5490000000000066]],"o":[[-0.2009999999999934,-0.012000000000000455],[-1.1440000000000055,0.9540000000000077],[-0.019000000000005457,0.08400000000000318],[0.5910000000000082,0.020000000000010232],[0.6990000000000123,-0.5829999999999984],[0.05000000000001137,-0.5589999999999975]]}}},{"ty":"st","o":{"a":0,"k":0},"w":{"a":0,"k":0},"c":{"a":0,"k":[0,0,0,0]},"lc":3,"lj":1,"ml":1},{"ty":"fl","o":{"a":0,"k":100},"r":1,"c":{"a":0,"k":[0.10196078431372549,0.1803921568627451,0.20784313725490197,1]}},{"ty":"tr","o":{"a":0,"k":100},"a":{"a":0,"k":[0,0]},"s":{"a":0,"k":[100,100]},"p":{"a":0,"k":[0,0]},"r":{"a":0,"k":0}}]},{"ty":"gr","nm":"Blog_Artboard 2 shape group","it":[{"ty":"sh","ks":{"a":0,"k":{"c":false,"v":[[183.514,154.917],[185.507,154.091],[186.909,154.84300000000002],[187.007,156.31400000000002],[185.39000000000001,156.723],[183.81300000000002,155.782],[183.461,155.417],[183.46300000000002,154.958]],"i":[[0,0],[-0.7719999999999914,-0.08299999999999841],[-0.3259999999999934,-0.43600000000000705],[0.2949999999999875,-0.4159999999999968],[0.5879999999999939,0.1670000000000016],[0.4819999999999993,0.3859999999999957],[0.08299999999999841,0.14700000000001978],[-0.10300000000000864,0.12100000000000932]],"o":[[0.4439999999999884,-0.5869999999999891],[0.5349999999999966,0.057999999999992724],[0.32499999999998863,0.43600000000000705],[-0.3329999999999984,0.4679999999999893],[-0.5889999999999986,-0.1670000000000016],[-0.13300000000000978,-0.10699999999999932],[-0.08299999999999841,-0.14599999999998658],[0,0]]}}},{"ty":"st","o":{"a":0,"k":0},"w":{"a":0,"k":0},"c":{"a":0,"k":[0,0,0,0]},"lc":3,"lj":1,"ml":1},{"ty":"fl","o":{"a":0,"k":100},"r":1,"c":{"a":0,"k":[1,0.6039215686274509,0.4235294117647059,1]}},{"ty":"tr","o":{"a":0,"k":100},"a":{"a":0,"k":[0,0]},"s":{"a":0,"k":[100,100]},"p":{"a":0,"k":[0,0]},"r":{"a":0,"k":0}}]},{"ty":"gr","nm":"Blog_Artboard 2 shape group","it":[{"ty":"sh","ks":{"a":0,"k":{"c":true,"v":[[182.14,166.543],[194.112,163.34900000000002],[182.26,168.65300000000002]],"i":[[0,0],[-5.957999999999998,3.5819999999999936],[8.947000000000003,0.8369999999999891]],"o":[[0,0],[0,0],[0,0]]}}},{"ty":"st","o":{"a":0,"k":0},"w":{"a":0,"k":0},"c":{"a":0,"k":[0,0,0,0]},"lc":3,"lj":1,"ml":1},{"ty":"fl","o":{"a":0,"k":100},"r":1,"c":{"a":0,"k":[1,0.6039215686274509,0.4235294117647059,1]}},{"ty":"tr","o":{"a":0,"k":100},"a":{"a":0,"k":[0,0]},"s":{"a":0,"k":[100,100]},"p":{"a":0,"k":[0,0]},"r":{"a":0,"k":0}}]},{"ty":"gr","nm":"Blog_Artboard 2 shape group","it":[{"ty":"sh","ks":{"a":0,"k":{"c":true,"v":[[182.992,151.944],[180.988,151.582],[180.322,151.272],[180.532,150.338],[181.464,147.939],[183.556,141.664],[180.964,147.756],[180.072,150.169],[179.909,151.405],[180.427,151.866],[180.962,151.94000000000003]],"i":[[-0.0049999999999954525,0.0700000000000216],[1.242999999999995,0.15899999999999181],[0.05299999999999727,0.2150000000000034],[-0.15200000000001523,0.3669999999999902],[-0.3259999999999934,0.8379999999999939],[0.1379999999999768,0.051000000000016144],[1.2930000000000064,-3.4160000000000252],[0.28299999999998704,-0.7680000000000007],[-0.16100000000000136,-0.47199999999998],[-0.20199999999999818,-0.05500000000000682],[-0.1560000000000059,-0.009000000000014552]],"o":[[0.006000000000000227,-0.06999999999999318],[-0.3149999999999977,-0.03299999999998704],[-0.07400000000001228,-0.22800000000000864],[0.29599999999999227,-0.7620000000000005],[1.2940000000000111,-3.414999999999992],[-0.13800000000000523,-0.05099999999998772],[-0.31100000000000705,0.842000000000013],[-0.11899999999999977,0.3580000000000041],[0.08500000000000796,0.23500000000001364],[0.20199999999999818,0.06200000000001182],[1.2490000000000236,0.06899999999995998]]}}},{"ty":"st","o":{"a":0,"k":0},"w":{"a":0,"k":0},"c":{"a":0,"k":[0,0,0,0]},"lc":3,"lj":1,"ml":1},{"ty":"fl","o":{"a":0,"k":100},"r":1,"c":{"a":0,"k":[0.10196078431372549,0.1803921568627451,0.20784313725490197,1]}},{"ty":"tr","o":{"a":0,"k":100},"a":{"a":0,"k":[0,0]},"s":{"a":0,"k":[100,100]},"p":{"a":0,"k":[0,0]},"r":{"a":0,"k":0}}]},{"ty":"gr","nm":"Blog_Artboard 2 shape group","it":[{"ty":"sh","ks":{"a":0,"k":{"c":true,"v":[[187.469,142.795],[189.714,142.30499999999998],[191.986,142.77399999999997],[191.51299999999998,142.14999999999998],[189.69499999999996,141.58899999999997],[187.90799999999996,142.16599999999997]],"i":[[-0.0689999999999884,-0.06699999999997885],[-1.233000000000004,-0.002999999999985903],[-0.13399999999998613,0.15100000000001046],[0.39500000000001023,0.28700000000000614],[0.7680000000000007,-0.002999999999985903],[0.3720000000000141,-0.28999999999999204]],"o":[[0.1419999999999959,0.1490000000000009],[1.2319999999999993,-0.014999999999986358],[0.0660000000000025,-0.06700000000000728],[-0.38800000000000523,-0.28600000000000136],[-0.7680000000000007,0.003999999999990678],[-0.37899999999996226,0.29200000000003]]}}},{"ty":"st","o":{"a":0,"k":0},"w":{"a":0,"k":0},"c":{"a":0,"k":[0,0,0,0]},"lc":3,"lj":1,"ml":1},{"ty":"fl","o":{"a":0,"k":100},"r":1,"c":{"a":0,"k":[0.10196078431372549,0.1803921568627451,0.20784313725490197,1]}},{"ty":"tr","o":{"a":0,"k":100},"a":{"a":0,"k":[0,0]},"s":{"a":0,"k":[100,100]},"p":{"a":0,"k":[0,0]},"r":{"a":0,"k":0}}]},{"ty":"gr","nm":"Blog_Artboard 2 shape group","it":[{"ty":"sh","ks":{"a":0,"k":{"c":true,"v":[[188.964,144.559],[190.069,145.716],[191.25099999999998,144.68200000000002],[190.14699999999996,143.525]],"i":[[0.02199999999999136,-0.6049999999999898],[-0.6310000000000002,-0.034000000000020236],[-0.02199999999999136,0.6059999999999945],[0.6300000000000239,0.034000000000020236]],"o":[[-0.020999999999986585,0.6049999999999898],[0.6310000000000002,0.033999999999991815],[0.020999999999986585,-0.6049999999999898],[-0.6319999999999766,-0.033999999999991815]]}}},{"ty":"st","o":{"a":0,"k":0},"w":{"a":0,"k":0},"c":{"a":0,"k":[0,0,0,0]},"lc":3,"lj":1,"ml":1},{"ty":"fl","o":{"a":0,"k":100},"r":1,"c":{"a":0,"k":[0.10196078431372549,0.1803921568627451,0.20784313725490197,1]}},{"ty":"tr","o":{"a":0,"k":100},"a":{"a":0,"k":[0,0]},"s":{"a":0,"k":[100,100]},"p":{"a":0,"k":[0,0]},"r":{"a":0,"k":0}}]},{"ty":"gr","nm":"Blog_Artboard 2 shape group","it":[{"ty":"sh","ks":{"a":0,"k":{"c":true,"v":[[175.342,142.564],[177.58700000000002,142.07399999999998],[179.859,142.54299999999998],[179.386,141.91899999999998],[177.56799999999998,141.35799999999998],[175.78199999999998,141.93499999999997]],"i":[[-0.0700000000000216,-0.0660000000000025],[-1.2340000000000089,-0.002999999999985903],[-0.13399999999998613,0.15100000000001046],[0.39400000000000546,0.28700000000000614],[0.7680000000000007,-0.002999999999985903],[0.3710000000000093,-0.28999999999999204]],"o":[[0.1419999999999959,0.15000000000000568],[1.2319999999999993,-0.014000000000010004],[0.0660000000000025,-0.06700000000000728],[-0.38800000000000523,-0.28600000000000136],[-0.7680000000000007,0.003999999999990678],[-0.3809999999999718,0.29200000000003]]}}},{"ty":"st","o":{"a":0,"k":0},"w":{"a":0,"k":0},"c":{"a":0,"k":[0,0,0,0]},"lc":3,"lj":1,"ml":1},{"ty":"fl","o":{"a":0,"k":100},"r":1,"c":{"a":0,"k":[0.10196078431372549,0.1803921568627451,0.20784313725490197,1]}},{"ty":"tr","o":{"a":0,"k":100},"a":{"a":0,"k":[0,0]},"s":{"a":0,"k":[100,100]},"p":{"a":0,"k":[0,0]},"r":{"a":0,"k":0}}]},{"ty":"gr","nm":"Blog_Artboard 2 shape group","it":[{"ty":"sh","ks":{"a":0,"k":{"c":true,"v":[[177.228,144.559],[178.334,145.716],[179.516,144.68200000000002],[178.41199999999998,143.525]],"i":[[0.020999999999986585,-0.6049999999999898],[-0.632000000000005,-0.034000000000020236],[-0.02199999999999136,0.6059999999999945],[0.6300000000000239,0.034000000000020236]],"o":[[-0.020999999999986585,0.6049999999999898],[0.6310000000000002,0.033999999999991815],[0.020999999999986585,-0.6049999999999898],[-0.6329999999999814,-0.033999999999991815]]}}},{"ty":"st","o":{"a":0,"k":0},"w":{"a":0,"k":0},"c":{"a":0,"k":[0,0,0,0]},"lc":3,"lj":1,"ml":1},{"ty":"fl","o":{"a":0,"k":100},"r":1,"c":{"a":0,"k":[0.10196078431372549,0.1803921568627451,0.20784313725490197,1]}},{"ty":"tr","o":{"a":0,"k":100},"a":{"a":0,"k":[0,0]},"s":{"a":0,"k":[100,100]},"p":{"a":0,"k":[0,0]},"r":{"a":0,"k":0}}]},{"ty":"gr","nm":"Blog_Artboard 2 shape group","it":[{"ty":"sh","ks":{"a":0,"k":{"c":true,"v":[[192.315,184.126],[202.037,174.30700000000002],[202.496,134.80100000000002],[202.496,134.80100000000002],[199.68300000000002,131.61200000000002],[182.997,127.39400000000002],[173.762,138.77200000000002],[173.869,156.466],[182.14,166.543],[182.165,174.239],[192.315,184.126]],"i":[[0,0],[-0.0630000000000166,5.359999999999985],[0,0],[0,0],[1.6229999999999905,0.17199999999999704],[0,0],[0.3380000000000223,-5.3629999999999995],[-0.7059999999999889,-4.445999999999998],[0,0],[-0.020000000000010232,-4.236999999999995],[-5.550000000000011,0.11899999999999977]],"o":[[5.358000000000004,-0.1150000000000091],[0,0],[0,0],[0.03200000000001069,-1.632000000000005],[0,0],[-5.343999999999994,-0.5649999999999977],[-0.375,5.957999999999998],[1.4199999999999875,8.939999999999998],[0.0010000000000047748,-0.022999999999996135],[0.027000000000015234,5.5519999999999925],[0,0]]}}},{"ty":"st","o":{"a":0,"k":0},"w":{"a":0,"k":0},"c":{"a":0,"k":[0,0,0,0]},"lc":3,"lj":1,"ml":1},{"ty":"fl","o":{"a":0,"k":100},"r":1,"c":{"a":0,"k":[1,0.7490196078431373,0.615686274509804,1]}},{"ty":"tr","o":{"a":0,"k":100},"a":{"a":0,"k":[0,0]},"s":{"a":0,"k":[100,100]},"p":{"a":0,"k":[0,0]},"r":{"a":0,"k":0}}]},{"ty":"gr","nm":"Blog_Artboard 2 shape group","it":[{"ty":"sh","ks":{"a":0,"k":{"c":true,"v":[[217.287,134.844],[208.603,132.10299999999998],[216.20000000000002,128.56099999999998],[213.90800000000002,117.96399999999998],[205.383,116.13099999999999],[198.429,124.20199999999998],[198.483,124.28899999999999],[197.12800000000001,123.79099999999998],[187.072,122.57399999999998],[177.881,126.62099999999998],[197.637,158.37499999999997],[206.285,152.56599999999997],[209.064,142.23999999999998],[209.069,139.51299999999998],[215.423,140.53499999999997],[211.199,136.75899999999996]],"i":[[-1.2909999999999968,1.8979999999999961],[2.343999999999994,2.0660000000000025],[-0.9960000000000093,3.009999999999991],[2.4710000000000036,1.98599999999999],[2.9140000000000157,-0.7800000000000011],[0.953000000000003,-2.861000000000004],[0,0],[0.4549999999999841,0.15200000000000102],[3.3810000000000002,-0.39100000000000534],[2.4989999999999952,-2.310999999999993],[0,0],[-1.8810000000000002,3.0730000000000075],[-0.1769999999999925,3.5979999999999848],[0.03700000000000614,0.9120000000000061],[-2.1180000000000234,-0.34099999999997976],[1.6430000000000007,0.957000000000022]],"o":[[-3.1059999999999945,0.34600000000000364],[2.8300000000000125,1.429000000000002],[0.9960000000000093,-3.010000000000005],[-2.350999999999999,-1.8889999999999958],[-2.9139999999999873,0.7800000000000011],[0,0],[-0.4480000000000075,-0.17799999999999727],[-3.227000000000004,-1.0840000000000032],[-3.3810000000000002,0.3919999999999959],[0,0],[3.587999999999994,-0.3160000000000025],[1.8799999999999955,-3.0730000000000075],[0.044999999999987494,-0.9019999999999868],[2.117999999999995,0.3400000000000034],[-1.1339999999999861,-1.5260000000000105],[2.1430000000000007,0.8180000000000405]]}}},{"ty":"st","o":{"a":0,"k":0},"w":{"a":0,"k":0},"c":{"a":0,"k":[0,0,0,0]},"lc":3,"lj":1,"ml":1},{"ty":"fl","o":{"a":0,"k":100},"r":1,"c":{"a":0,"k":[0.10196078431372549,0.1803921568627451,0.20784313725490197,1]}},{"ty":"tr","o":{"a":0,"k":100},"a":{"a":0,"k":[0,0]},"s":{"a":0,"k":[100,100]},"p":{"a":0,"k":[0,0]},"r":{"a":0,"k":0}}]},{"ty":"gr","nm":"Blog_Artboard 2 shape group","it":[{"ty":"sh","ks":{"a":0,"k":{"c":true,"v":[[225.124,189.043],[225.081,189.27],[224.91799999999998,189.93],[224.253,192.472],[221.708,201.925],[221.667,202.078],[221.523,202.00900000000001],[210.564,196.74900000000002],[210.779,196.693],[201.547,209.858],[201.412,210.05100000000002],[201.246,209.883],[192.37400000000002,200.89100000000002],[190.51200000000003,199.002],[190.76300000000003,199.031],[178.80700000000004,206.52800000000002],[178.63600000000005,206.63500000000002],[178.53700000000006,206.46],[172.09100000000007,195.07600000000002],[172.29300000000006,195.15200000000002],[159.99900000000005,199.38400000000001],[159.88200000000006,199.424],[159.84200000000007,199.308],[157.11400000000006,191.396],[156.40700000000007,189.29299999999998],[156.23300000000006,188.74899999999997],[156.18500000000006,188.56099999999998],[156.26500000000007,188.73699999999997],[156.47000000000008,189.26999999999995],[157.23800000000008,191.35199999999995],[160.0730000000001,199.22599999999994],[159.91600000000008,199.15099999999995],[172.1800000000001,194.83299999999994],[172.3120000000001,194.78599999999994],[172.3820000000001,194.90899999999993],[178.86900000000009,206.26899999999995],[178.59900000000007,206.20099999999994],[190.54500000000007,198.68699999999993],[190.68200000000007,198.6009999999999],[190.79600000000008,198.71699999999993],[192.65800000000007,200.60599999999994],[201.52200000000008,209.60599999999994],[201.2210000000001,209.63099999999994],[210.49400000000009,196.49499999999995],[210.5780000000001,196.37599999999995],[210.7090000000001,196.43999999999994],[221.6340000000001,201.77099999999993],[221.4490000000001,201.85499999999993],[224.1110000000001,192.43399999999994],[224.8430000000001,189.91099999999994],[225.0410000000001,189.26099999999994]],"i":[[-0.006000000000000227,-0.0010000000000047748],[0.034000000000020236,-0.14799999999999613],[0.06800000000001205,-0.2750000000000057],[0.2849999999999966,-1.0900000000000034],[1.0789999999999793,-4.007000000000005],[0,0],[0,0],[4.128000000000014,1.9809999999999945],[0,0],[3.319999999999993,-4.7339999999999804],[0,0],[0,0],[3.0689999999999884,3.11099999999999],[0.6159999999999854,0.625],[0,0],[3.783999999999992,-2.373000000000019],[0,0],[0,0],[1.9739999999999895,3.484999999999985],[0,0],[3.412000000000006,-1.1740000000000066],[0,0],[0,0],[0.6410000000000196,1.858000000000004],[0.16800000000000637,0.4989999999999952],[0.045000000000015916,0.14000000000001478],[-0.0049999999999954525,0.001999999999981128],[-0.047000000000025466,-0.117999999999995],[-0.08500000000000796,-0.22099999999997522],[-0.32900000000000773,-0.8930000000000007],[-1.210000000000008,-3.36099999999999],[0,0],[-4.716000000000008,1.660000000000025],[0,0],[0,0],[-2.323999999999984,-4.069000000000017],[0,0],[-4.157000000000011,2.615000000000009],[0,0],[0,0],[-0.6239999999999952,-0.6340000000000146],[-2.8160000000000025,-2.859000000000009],[0,0],[-2.8119999999999834,3.983000000000004],[0,0],[0,0],[-3.1069999999999993,-1.5159999999999911],[0,0],[-0.6299999999999955,2.227000000000004],[-0.17300000000000182,0.5970000000000084],[-0.05000000000001137,0.16499999999999204]],"o":[[0.006000000000000227,0.0020000000000095497],[-0.04099999999999682,0.16800000000000637],[-0.1570000000000107,0.6020000000000039],[-0.6020000000000039,2.2350000000000136],[0,0],[0,0],[-3.1169999999999902,-1.4960000000000093],[0,0],[-2.7990000000000066,3.9919999999999902],[0,0],[0,0],[-2.818000000000012,-2.8569999999999993],[-0.625,-0.6339999999999861],[0,0],[-4.159999999999997,2.609000000000009],[0,0],[0,0],[-2.3089999999999975,-4.078000000000003],[0,0],[-4.728000000000009,1.6270000000000095],[0,0],[0,0],[-1.1639999999999873,-3.3770000000000095],[-0.30299999999999727,-0.9019999999999868],[-0.07200000000000273,-0.22499999999999432],[-0.03700000000000614,-0.12299999999999045],[0.006000000000000227,-0.0020000000000095497],[0.05299999999999727,0.13700000000000045],[0.18199999999998795,0.49500000000000455],[0.6659999999999968,1.8489999999999895],[0,0],[3.4029999999999916,-1.1980000000000075],[0,0],[0,0],[1.98599999999999,3.4780000000000086],[0,0],[3.781000000000006,-2.3780000000000143],[0,0],[0,0],[0.6160000000000139,0.625],[3.0660000000000025,3.1129999999999995],[0,0],[3.335000000000008,-4.7239999999999895],[0,0],[0,0],[4.116000000000014,2.0080000000000098],[0,0],[1.127999999999986,-3.9939999999999998],[0.31399999999999295,-1.0809999999999889],[0.08299999999999841,-0.2709999999999866],[0.04999999999989768,-0.14599999999992974]]}}},{"ty":"st","o":{"a":0,"k":0},"w":{"a":0,"k":0},"c":{"a":0,"k":[0,0,0,0]},"lc":3,"lj":1,"ml":1},{"ty":"fl","o":{"a":0,"k":100},"r":1,"c":{"a":0,"k":[0.9607843137254902,0.9607843137254902,0.9607843137254902,1]}},{"ty":"tr","o":{"a":0,"k":100},"a":{"a":0,"k":[0,0]},"s":{"a":0,"k":[100,100]},"p":{"a":0,"k":[0,0]},"r":{"a":0,"k":0}}]},{"ty":"gr","nm":"Blog_Artboard 2 shape group","it":[{"ty":"sh","ks":{"a":0,"k":{"c":true,"v":[[217.574,180.394],[217.573,180.559],[217.537,181.044],[217.366,182.922],[216.65800000000002,189.975],[216.64000000000001,190.156],[216.477,190.07],[207.098,185.13299999999998],[207.32000000000002,185.07099999999997],[202.22600000000003,193.66599999999997],[202.11700000000002,193.84999999999997],[201.94700000000003,193.71899999999997],[193.36800000000002,187.13999999999996],[193.61500000000004,187.13899999999995],[189.87800000000004,190.06799999999996],[184.78400000000005,194.05699999999996],[184.59700000000004,194.20299999999995],[184.48400000000004,193.99399999999994],[179.63100000000003,185.01699999999994],[179.87400000000002,185.09899999999993],[169.58300000000003,189.68399999999994],[169.39400000000003,189.76799999999994],[169.36000000000004,189.56499999999994],[167.80700000000004,180.41199999999995],[167.96500000000003,180.50099999999995],[162.07300000000004,182.74799999999993],[160.50500000000002,183.32899999999992],[160.09900000000002,183.47099999999992],[159.95800000000003,183.50899999999993],[160.08800000000002,183.44099999999992],[160.48200000000003,183.26999999999992],[162.02700000000002,182.63299999999992],[167.87900000000002,180.28399999999993],[168.01200000000003,180.23099999999994],[168.03700000000003,180.37299999999993],[169.67400000000004,189.51099999999994],[169.45100000000002,189.39299999999994],[179.71900000000002,184.75599999999994],[179.87800000000001,184.68399999999994],[179.96200000000002,184.83799999999994],[184.836,193.80399999999995],[184.536,193.74199999999993],[189.627,189.74999999999994],[193.365,186.82299999999995],[193.488,186.72699999999995],[193.612,186.82199999999995],[202.178,193.41799999999995],[201.899,193.47099999999995],[207.032,184.89899999999994],[207.114,184.76099999999994],[207.254,184.83599999999993],[216.59199999999998,189.8509999999999],[216.41099999999997,189.94699999999992],[217.23299999999998,182.90699999999993],[217.46899999999997,181.03599999999992],[217.53799999999995,180.55499999999992]],"i":[[-0.006000000000000227,-0.0010000000000047748],[0.007000000000005002,-0.10899999999998045],[0.01500000000001478,-0.19700000000000273],[0.07200000000000273,-0.7989999999999782],[0.3009999999999877,-2.9979999999999905],[0,0],[0,0],[3.5960000000000036,1.8930000000000007],[0,0],[1.828000000000003,-3.084000000000003],[0,0],[0,0],[3.0030000000000143,2.304000000000002],[0,0],[1.2800000000000011,-1.0030000000000143],[1.6629999999999825,-1.3029999999999973],[0,0],[0,0],[1.5360000000000014,2.8400000000000034],[0,0],[3.094999999999999,-1.379000000000019],[0,0],[0,0],[0.4339999999999975,2.555999999999983],[0,0],[1.391999999999996,-0.5309999999999775],[0.3810000000000002,-0.14099999999999113],[0.10900000000000887,-0.03799999999998249],[0.001999999999981128,0.0049999999999954525],[-0.08799999999999386,0.040000000000020464],[-0.15899999999999181,0.0689999999999884],[-0.6559999999999775,0.27000000000001023],[-2.491000000000014,1],[0,0],[0,0],[-0.6310000000000002,-3.52200000000002],[0,0],[-3.7319999999999993,1.6850000000000023],[0,0],[0,0],[-1.6989999999999839,-3.1239999999999952],[0,0],[-1.7280000000000086,1.3559999999999945],[-1.193000000000012,0.9339999999999975],[0,0],[0,0],[-2.6779999999999973,-2.061000000000007],[0,0],[-1.5580000000000211,2.602000000000004],[0,0],[0,0],[-2.5919999999999845,-1.391999999999996],[0,0],[-0.19499999999999318,1.664999999999992],[-0.05699999999998795,0.4519999999999982],[-0.018000000000000682,0.1279999999999859]],"o":[[0.006000000000000227,0.0010000000000047748],[-0.00899999999998613,0.12899999999999068],[-0.04099999999999682,0.45300000000000296],[-0.16800000000000637,1.6680000000000064],[0,0],[0,0],[-2.6030000000000086,-1.3700000000000045],[0,0],[-1.5459999999999923,2.608000000000004],[0,0],[0,0],[-2.6810000000000116,-2.0560000000000116],[0,0],[-1.1920000000000073,0.9350000000000023],[-1.7299999999999898,1.3540000000000134],[0,0],[0,0],[-1.6910000000000025,-3.1280000000000143],[0,0],[-3.740000000000009,1.6659999999999968],[0,0],[0,0],[-0.5989999999999895,-3.5279999999999916],[0,0],[-2.5080000000000098,0.9569999999999936],[-0.664999999999992,0.2470000000000141],[-0.16399999999998727,0.05699999999998795],[-0.09200000000001296,0.030000000000001137],[-0.0020000000000095497,-0.0049999999999954525],[0.10599999999999454,-0.04599999999999227],[0.375,-0.15500000000000114],[1.3830000000000098,-0.5550000000000068],[0,0],[0,0],[0.45699999999999363,2.5519999999999925],[0,0],[3.087999999999994,-1.3950000000000102],[0,0],[0,0],[1.5420000000000016,2.836999999999989],[0,0],[1.6620000000000061,-1.3029999999999973],[1.2800000000000011,-1.002999999999986],[0,0],[0,0],[2.9989999999999952,2.3089999999999975],[0,0],[1.842000000000013,-3.0749999999999886],[0,0],[0,0],[3.5800000000000125,1.9230000000000018],[0,0],[0.34899999999998954,-2.992999999999995],[0.09999999999999432,-0.7959999999999923],[0.027999999999991587,-0.19499999999999318],[0.01900000000003388,-0.10699999999991405]]}}},{"ty":"st","o":{"a":0,"k":0},"w":{"a":0,"k":0},"c":{"a":0,"k":[0,0,0,0]},"lc":3,"lj":1,"ml":1},{"ty":"fl","o":{"a":0,"k":100},"r":1,"c":{"a":0,"k":[0.9607843137254902,0.9607843137254902,0.9607843137254902,1]}},{"ty":"tr","o":{"a":0,"k":100},"a":{"a":0,"k":[0,0]},"s":{"a":0,"k":[100,100]},"p":{"a":0,"k":[0,0]},"r":{"a":0,"k":0}}]},{"ty":"gr","nm":"Blog_Artboard 2 shape group","it":[{"ty":"sh","ks":{"a":0,"k":{"c":true,"v":[[224.928,279.484],[225.52,278.746],[225.202,276.29699999999997],[222.202,274.03499999999997],[217.538,272.787],[209.51500000000001,269.131],[207.329,267.59099999999995],[206.59300000000002,266.94199999999995],[207.42200000000003,267.46399999999994],[209.66500000000002,268.88699999999994],[217.65400000000002,272.39899999999994],[222.33100000000002,273.68399999999997],[225.45200000000003,276.15799999999996],[225.66000000000003,278.816],[225.16000000000003,279.368]],"i":[[0.007000000000005002,0.010000000000047748],[-0.27000000000001023,0.5459999999999923],[0.5390000000000157,0.9499999999999886],[1.372000000000014,0.48200000000002774],[1.6529999999999916,0.5159999999999627],[1.9019999999999868,1.2160000000000082],[0.4970000000000141,0.38800000000003365],[-0.016000000000019554,0.021000000000015007],[-0.5190000000000055,-0.353999999999985],[-0.9639999999999986,-0.5710000000000264],[-3.2760000000000105,-0.9780000000000086],[-1.4279999999999973,-0.5320000000000391],[-0.5380000000000109,-1.0500000000000114],[0.34899999999998954,-0.5760000000000218],[0.13800000000000523,-0.09600000000000364]],"o":[[-0.03299999999998704,-0.036000000000001364],[0.2740000000000009,-0.5380000000000109],[-0.5289999999999964,-0.9529999999999745],[-1.3729999999999905,-0.4940000000000282],[-3.3170000000000073,-0.9900000000000091],[-0.953000000000003,-0.6080000000000041],[-0.492999999999995,-0.3949999999999818],[0.018000000000000682,-0.023000000000024556],[0.5240000000000009,0.34699999999998],[1.9240000000000066,1.1429999999999723],[1.6270000000000095,0.5090000000000146],[1.421999999999997,0.5199999999999818],[0.5440000000000111,1.02800000000002],[-0.16300000000001091,0.28899999999998727],[-0.1430000000000291,0.09300000000001774]]}}},{"ty":"st","o":{"a":0,"k":0},"w":{"a":0,"k":0},"c":{"a":0,"k":[0,0,0,0]},"lc":3,"lj":1,"ml":1},{"ty":"fl","o":{"a":0,"k":100},"r":1,"c":{"a":0,"k":[0.10196078431372549,0.1803921568627451,0.20784313725490197,1]}},{"ty":"tr","o":{"a":0,"k":100},"a":{"a":0,"k":[0,0]},"s":{"a":0,"k":[100,100]},"p":{"a":0,"k":[0,0]},"r":{"a":0,"k":0}}]},{"ty":"gr","nm":"Blog_Artboard 2 shape group","it":[{"ty":"sh","ks":{"a":0,"k":{"c":true,"v":[[206.816,274.449],[205.82,274.136],[203.394,272.637],[202.70000000000002,271.986],[202.08100000000002,271.11],[202.217,269.90500000000003],[202.82000000000002,269.57300000000004],[203.47500000000002,269.64700000000005],[206.64900000000003,273.636],[204.49100000000004,278.249],[203.37800000000004,278.749],[202.74400000000006,278.71900000000005],[202.25400000000005,278.28800000000007],[202.39700000000005,277.16900000000004],[203.02100000000004,276.41900000000004],[205.40900000000005,274.855],[206.41400000000004,274.571],[205.47300000000004,274.999],[203.22400000000005,276.62100000000004],[202.67000000000004,277.321],[202.55600000000004,278.139],[203.31400000000005,278.399],[204.28300000000004,277.94],[206.24800000000005,273.686],[203.36300000000006,270.00199999999995],[202.49400000000006,270.12899999999996],[202.39600000000004,270.98999999999995],[203.58400000000003,272.42199999999997]],"i":[[0.04400000000001114,-0.07900000000000773],[0.6220000000000141,0.2599999999999909],[0.9259999999999877,0.7870000000000346],[0.23099999999999454,0.23799999999999955],[0.14599999999998658,0.36599999999998545],[-0.28600000000000136,0.36899999999997135],[-0.22900000000001342,0.026999999999986812],[-0.20400000000000773,-0.06299999999998818],[-0.24600000000000932,-1.9049999999999727],[1.3619999999999948,-0.896000000000015],[0.4130000000000109,-0.07499999999998863],[0.21299999999999386,0.06999999999999318],[0.09499999999999886,0.19799999999997908],[-0.16399999999998727,0.29200000000003],[-0.21299999999999386,0.20999999999997954],[-0.6230000000000189,0.2510000000000332],[-0.0049999999999954525,-0.02199999999999136],[0.5960000000000036,-0.2880000000000109],[0.8189999999999884,-0.8430000000000177],[0.14099999999999113,-0.2669999999999959],[-0.12100000000000932,-0.23399999999998045],[-0.3300000000000125,0.07200000000000273],[-0.31399999999999295,0.21199999999998909],[0.21999999999999886,1.7460000000000377],[1.4059999999999775,0.49600000000003774],[0.1769999999999925,-0.22800000000000864],[-0.11199999999999477,-0.2810000000000059],[-0.41100000000000136,-0.40200000000004366]],"o":[[-0.007000000000005002,0.021000000000015007],[-0.6189999999999998,-0.2599999999999909],[-0.22999999999998977,-0.19700000000000273],[-0.22700000000000387,-0.2389999999999759],[-0.14699999999999136,-0.36299999999999955],[0.14300000000000068,-0.18400000000002592],[0.22999999999998977,-0.029999999999972715],[1.5740000000000123,0.5360000000000014],[0.23799999999999955,1.9250000000000114],[-0.3400000000000034,0.22199999999998],[-0.20300000000000296,0.036000000000001364],[-0.21399999999999864,-0.07200000000000273],[-0.18799999999998818,-0.42399999999997817],[0.1740000000000066,-0.30700000000001637],[0.8779999999999859,-0.8489999999999895],[0.6289999999999907,-0.24900000000002365],[0.009999999999990905,0.031999999999982265],[-0.5910000000000082,0.28899999999998727],[-0.20400000000000773,0.21399999999999864],[-0.14400000000000546,0.2599999999999909],[0.11699999999999022,0.24900000000002365],[0.3269999999999982,-0.06200000000001182],[1.2439999999999998,-0.8389999999999986],[-0.21700000000001296,-1.7379999999999995],[-0.34200000000001296,-0.117999999999995],[-0.18600000000000705,0.22699999999997544],[0.24100000000001387,0.5810000000000173],[1.7769999999999584,1.57000000000005]]}}},{"ty":"st","o":{"a":0,"k":0},"w":{"a":0,"k":0},"c":{"a":0,"k":[0,0,0,0]},"lc":3,"lj":1,"ml":1},{"ty":"fl","o":{"a":0,"k":100},"r":1,"c":{"a":0,"k":[0.10196078431372549,0.1803921568627451,0.20784313725490197,1]}},{"ty":"tr","o":{"a":0,"k":100},"a":{"a":0,"k":[0,0]},"s":{"a":0,"k":[100,100]},"p":{"a":0,"k":[0,0]},"r":{"a":0,"k":0}}]},{"ty":"gr","nm":"Blog_Artboard 2 shape group","it":[{"ty":"sh","ks":{"a":0,"k":{"c":true,"v":[[213.943,277.976],[213.51600000000002,275.103],[213.49200000000002,272.19800000000004],[213.919,275.071]],"i":[[0.11199999999999477,-0.009000000000014552],[0.12399999999999523,1.5949999999999704],[-0.11099999999999,0.008999999999957708],[-0.12399999999999523,-1.5960000000000036]],"o":[[-0.11099999999999,0.009000000000014552],[-0.12399999999999523,-1.5960000000000036],[0.11099999999999,-0.009000000000014552],[0.125,1.5949999999999704]]}}},{"ty":"st","o":{"a":0,"k":0},"w":{"a":0,"k":0},"c":{"a":0,"k":[0,0,0,0]},"lc":3,"lj":1,"ml":1},{"ty":"fl","o":{"a":0,"k":100},"r":1,"c":{"a":0,"k":[0.10196078431372549,0.1803921568627451,0.20784313725490197,1]}},{"ty":"tr","o":{"a":0,"k":100},"a":{"a":0,"k":[0,0]},"s":{"a":0,"k":[100,100]},"p":{"a":0,"k":[0,0]},"r":{"a":0,"k":0}}]},{"ty":"gr","nm":"Blog_Artboard 2 shape group","it":[{"ty":"sh","ks":{"a":0,"k":{"c":true,"v":[[211.221,277.51],[211.041,274.707],[211.266,271.907],[211.446,274.71]],"i":[[0.11199999999999477,0.0010000000000331966],[-0.012000000000000455,1.5470000000000255],[-0.11199999999999477,-0.0009999999999763531],[0.012000000000000455,-1.5470000000000255]],"o":[[-0.11199999999999477,-0.0009999999999763531],[0.012000000000000455,-1.5480000000000018],[0.11199999999999477,0.0009999999999763531],[-0.01300000000000523,1.5470000000000255]]}}},{"ty":"st","o":{"a":0,"k":0},"w":{"a":0,"k":0},"c":{"a":0,"k":[0,0,0,0]},"lc":3,"lj":1,"ml":1},{"ty":"fl","o":{"a":0,"k":100},"r":1,"c":{"a":0,"k":[0.10196078431372549,0.1803921568627451,0.20784313725490197,1]}},{"ty":"tr","o":{"a":0,"k":100},"a":{"a":0,"k":[0,0]},"s":{"a":0,"k":[100,100]},"p":{"a":0,"k":[0,0]},"r":{"a":0,"k":0}}]},{"ty":"gr","nm":"Blog_Artboard 2 shape group","it":[{"ty":"sh","ks":{"a":0,"k":{"c":true,"v":[[208.918,277.575],[208.394,274.524],[208.734,271.446],[208.799,274.511]],"i":[[0.11499999999998067,-0.02199999999999136],[0.049000000000006594,1.7210000000000036],[-0.10499999999998977,-0.01700000000005275],[-0.05500000000000682,-1.6820000000000164]],"o":[[-0.10300000000000864,0.02400000000000091],[-0.05500000000000682,-1.7210000000000036],[0.11600000000001387,0.014999999999986358],[0.04599999999999227,1.6819999999999595]]}}},{"ty":"st","o":{"a":0,"k":0},"w":{"a":0,"k":0},"c":{"a":0,"k":[0,0,0,0]},"lc":3,"lj":1,"ml":1},{"ty":"fl","o":{"a":0,"k":100},"r":1,"c":{"a":0,"k":[0.10196078431372549,0.1803921568627451,0.20784313725490197,1]}},{"ty":"tr","o":{"a":0,"k":100},"a":{"a":0,"k":[0,0]},"s":{"a":0,"k":[100,100]},"p":{"a":0,"k":[0,0]},"r":{"a":0,"k":0}}]},{"ty":"gr","nm":"Blog_Artboard 2 shape group","it":[{"ty":"sh","ks":{"a":0,"k":{"c":true,"v":[[200.94,266.805],[205.796,266.805],[208.488,267.526],[211.049,269.005],[215.524,271.139],[224.491,274.171],[224.929,279.483],[200.941,278.545],[200.941,266.805]],"i":[[0,0],[0,0],[-0.818000000000012,-0.47199999999998],[0,0],[-0.9230000000000018,-0.29599999999999227],[-1.0460000000000207,-0.8059999999999832],[1.6410000000000196,-0.285000000000025],[0,0],[0,0]],"o":[[0,0],[0.9449999999999932,0],[0,0],[0.8389999999999986,0.48500000000001364],[2.953000000000003,0.9490000000000123],[2.9869999999999948,2.3039999999999736],[-1.4410000000000025,0.25],[0,0],[0,0]]}}},{"ty":"sh","ks":{"a":0,"k":{"c":true,"v":[[200.94,266.805]],"i":[[0,0]],"o":[[0,0]]}}},{"ty":"st","o":{"a":0,"k":0},"w":{"a":0,"k":0},"c":{"a":0,"k":[0,0,0,0]},"lc":3,"lj":1,"ml":1},{"ty":"fl","o":{"a":0,"k":100},"r":1,"c":{"a":0,"k":[1,0.7607843137254902,0,1]}},{"ty":"tr","o":{"a":0,"k":100},"a":{"a":0,"k":[0,0]},"s":{"a":0,"k":[100,100]},"p":{"a":0,"k":[0,0]},"r":{"a":0,"k":0}}]},{"ty":"gr","nm":"Blog_Artboard 2 shape group","it":[{"ty":"sh","ks":{"a":0,"k":{"c":true,"v":[[190.139,265.297],[200.94,266.805],[200.94,278.545],[191.006,278.289]],"i":[[0,0],[0,0],[0,0],[0,0]],"o":[[0,0],[0,0],[0,0],[0,0]]}}},{"ty":"st","o":{"a":0,"k":0},"w":{"a":0,"k":0},"c":{"a":0,"k":[0,0,0,0]},"lc":3,"lj":1,"ml":1},{"ty":"fl","o":{"a":0,"k":100},"r":1,"c":{"a":0,"k":[1,0.7490196078431373,0.615686274509804,1]}},{"ty":"tr","o":{"a":0,"k":100},"a":{"a":0,"k":[0,0]},"s":{"a":0,"k":[100,100]},"p":{"a":0,"k":[0,0]},"r":{"a":0,"k":0}}]},{"ty":"gr","nm":"Blog_Artboard 2 shape group","it":[{"ty":"sh","ks":{"a":0,"k":{"c":true,"v":[[173.215,237.908],[173.102,237.89399999999998]],"i":[[-0.03700000000000614,-0.003999999999990678],[0.038000000000010914,0.005000000000023874]],"o":[[-0.038000000000010914,-0.0049999999999954525],[0.03799999999998249,0.005000000000023874]]}}},{"ty":"st","o":{"a":0,"k":0},"w":{"a":0,"k":0},"c":{"a":0,"k":[0,0,0,0]},"lc":3,"lj":1,"ml":1},{"ty":"fl","o":{"a":0,"k":100},"r":1,"c":{"a":0,"k":[0.4823529411764706,0.5686274509803921,0.6666666666666666,1]}},{"ty":"tr","o":{"a":0,"k":100},"a":{"a":0,"k":[0,0]},"s":{"a":0,"k":[100,100]},"p":{"a":0,"k":[0,0]},"r":{"a":0,"k":0}}]},{"ty":"gr","nm":"Blog_Artboard 2 shape group","it":[{"ty":"sh","ks":{"a":0,"k":{"c":true,"v":[[181.103,235.353],[182.235,236.52700000000002],[181.19000000000003,237.68800000000002],[180.01500000000001,236.53400000000002]],"i":[[-0.592000000000013,0.030000000000001137],[0.001999999999981128,-0.6440000000000055],[0.5589999999999975,-0.03200000000001069],[-0.006000000000000227,0.6939999999999884]],"o":[[0.6140000000000043,-0.0020000000000095497],[-0.0020000000000095497,0.7340000000000089],[-0.6949999999999932,0.03999999999999204],[0.005999999999971806,-0.6850000000000307]]}}},{"ty":"st","o":{"a":0,"k":0},"w":{"a":0,"k":0},"c":{"a":0,"k":[0,0,0,0]},"lc":3,"lj":1,"ml":1},{"ty":"fl","o":{"a":0,"k":100},"r":1,"c":{"a":0,"k":[0.9764705882352941,0.803921568627451,0.047058823529411764,1]}},{"ty":"tr","o":{"a":0,"k":100},"a":{"a":0,"k":[0,0]},"s":{"a":0,"k":[100,100]},"p":{"a":0,"k":[0,0]},"r":{"a":0,"k":0}}]},{"ty":"gr","nm":"Blog_Artboard 2 shape group","it":[{"ty":"sh","ks":{"a":0,"k":{"c":true,"v":[[181.939,245.292],[180.305,245.292],[180.305,238.445],[181.939,238.445]],"i":[[0,-2.2949999999999875],[0.5509999999999877,0],[0,2.2890000000000157],[-0.5579999999999927,0]],"o":[[-0.554000000000002,0],[0,-2.282999999999987],[0.539999999999992,0],[0,2.2770000000000152]]}}},{"ty":"st","o":{"a":0,"k":0},"w":{"a":0,"k":0},"c":{"a":0,"k":[0,0,0,0]},"lc":3,"lj":1,"ml":1},{"ty":"fl","o":{"a":0,"k":100},"r":1,"c":{"a":0,"k":[1,1,1,1]}},{"ty":"tr","o":{"a":0,"k":100},"a":{"a":0,"k":[0,0]},"s":{"a":0,"k":[100,100]},"p":{"a":0,"k":[0,0]},"r":{"a":0,"k":0}}]},{"ty":"gr","nm":"Blog_Artboard 2 shape group","it":[{"ty":"sh","ks":{"a":0,"k":{"c":true,"v":[[177.338,235.668],[178.98499999999999,235.668],[178.98499999999999,245.28300000000002],[177.338,245.28300000000002]],"i":[[0,3.2239999999999895],[-0.5579999999999927,0],[0,-3.217000000000013],[0.5649999999999977,0]],"o":[[0.5519999999999925,0],[0,3.1990000000000123],[-0.539999999999992,0],[0,-3.1920000000000073]]}}},{"ty":"st","o":{"a":0,"k":0},"w":{"a":0,"k":0},"c":{"a":0,"k":[0,0,0,0]},"lc":3,"lj":1,"ml":1},{"ty":"fl","o":{"a":0,"k":100},"r":1,"c":{"a":0,"k":[1,1,1,1]}},{"ty":"tr","o":{"a":0,"k":100},"a":{"a":0,"k":[0,0]},"s":{"a":0,"k":[100,100]},"p":{"a":0,"k":[0,0]},"r":{"a":0,"k":0}}]},{"ty":"gr","nm":"Blog_Artboard 2 shape group","it":[{"ty":"sh","ks":{"a":0,"k":{"c":true,"v":[[210.255,239.763],[209.094,241.00300000000001],[208.458,240.26100000000002],[206.555,240.25100000000003],[205.898,242.32000000000002],[206.227,243.026],[208.077,243.577],[208.869,242.931],[209.043,242.681],[210.225,243.93900000000002],[208.19,245.33800000000002],[205.486,244.71800000000002],[204.194,242.36800000000002],[205.165,239.24400000000003],[209.70499999999998,239.05400000000003]],"i":[[-0.18799999999998818,-0.24500000000000455],[0.367999999999995,-0.3930000000000007],[0.18600000000000705,0.2560000000000002],[0.4099999999999966,-0.4140000000000157],[-0.14699999999999136,-0.7959999999999923],[-0.16300000000001091,-0.19299999999998363],[-0.8329999999999984,0.29400000000001114],[-0.257000000000005,0.22699999999997544],[-0.06800000000001205,0.09999999999999432],[-0.39099999999999113,-0.4159999999999968],[0.8669999999999902,-0.1699999999999875],[0.7849999999999966,0.6380000000000052],[0.10200000000000387,0.9639999999999986],[-0.7729999999999961,0.9110000000000014],[-1.3319999999999936,-1.2609999999999957]],"o":[[-0.40500000000000114,0.43199999999998795],[-0.22399999999998954,-0.25899999999998613],[-0.3269999999999982,-0.4509999999999934],[-0.5939999999999941,0.5999999999999943],[0.04599999999999227,0.24899999999999523],[0.5200000000000102,0.6160000000000139],[0.30299999999999727,-0.10699999999999932],[0.06700000000000728,-0.0589999999999975],[0.4019999999999868,0.42799999999999727],[-0.4919999999999902,0.757000000000005],[-0.9869999999999948,0.1939999999999884],[-0.73599999999999,-0.5980000000000132],[-0.12399999999999523,-1.1810000000000116],[1.117999999999995,-1.3170000000000073],[0.21100000000001273,0.1999999999999602]]}}},{"ty":"st","o":{"a":0,"k":0},"w":{"a":0,"k":0},"c":{"a":0,"k":[0,0,0,0]},"lc":3,"lj":1,"ml":1},{"ty":"fl","o":{"a":0,"k":100},"r":1,"c":{"a":0,"k":[1,1,1,1]}},{"ty":"tr","o":{"a":0,"k":100},"a":{"a":0,"k":[0,0]},"s":{"a":0,"k":[100,100]},"p":{"a":0,"k":[0,0]},"r":{"a":0,"k":0}}]},{"ty":"gr","nm":"Blog_Artboard 2 shape group","it":[{"ty":"sh","ks":{"a":0,"k":{"c":true,"v":[[197.492,238.454],[198.426,239.044],[199.81099999999998,238.359],[202.34699999999998,239.062],[203.31699999999998,241.298],[203.32099999999997,245.042],[203.32099999999997,245.285],[201.65299999999996,245.285],[201.65299999999996,244.994],[201.66399999999996,241.378],[200.49099999999996,240.01399999999998],[199.11699999999996,241.33299999999997],[199.12099999999995,244.94899999999998],[199.12099999999995,245.28799999999998],[197.48999999999995,245.28799999999998]],"i":[[0,2.2849999999999966],[-0.32099999999999795,-0.19900000000001228],[-0.5300000000000011,0.09899999999998954],[-0.7019999999999982,-0.6760000000000161],[-0.0049999999999954525,-0.8799999999999955],[-0.0010000000000047748,-1.2479999999999905],[0,-0.09199999999998454],[0.5790000000000077,0],[0,0.09799999999998477],[-0.02400000000000091,1.2050000000000125],[0.5509999999999877,0.045000000000015916],[-0.0049999999999954525,-0.6459999999999866],[-0.0010000000000047748,-1.2050000000000125],[0,-0.12100000000000932],[0.5500000000000114,0]],"o":[[0.5409999999999968,-0.14300000000000068],[0.4000000000000057,-0.3300000000000125],[0.960000000000008,-0.17799999999999727],[0.6200000000000045,0.5970000000000084],[0.007000000000005002,1.2479999999999905],[0,0.07499999999998863],[-0.5550000000000068,0],[0,-0.09499999999999886],[0.0020000000000095497,-1.2050000000000125],[0.01300000000000523,-0.6730000000000018],[-0.7119999999999891,-0.0589999999999975],[0.00899999999998613,1.2050000000000125],[0,0.10900000000000887],[-0.554000000000002,0],[0.0020000000000379714,-2.2739999999999725]]}}},{"ty":"st","o":{"a":0,"k":0},"w":{"a":0,"k":0},"c":{"a":0,"k":[0,0,0,0]},"lc":3,"lj":1,"ml":1},{"ty":"fl","o":{"a":0,"k":100},"r":1,"c":{"a":0,"k":[1,1,1,1]}},{"ty":"tr","o":{"a":0,"k":100},"a":{"a":0,"k":[0,0]},"s":{"a":0,"k":[100,100]},"p":{"a":0,"k":[0,0]},"r":{"a":0,"k":0}}]},{"ty":"gr","nm":"Blog_Artboard 2 shape group","it":[{"ty":"sh","ks":{"a":0,"k":{"c":true,"v":[[213.574,243.624],[215.512,242.68699999999998],[216.689,243.94199999999998],[215.143,245.19899999999998],[211.891,244.67],[210.666,242.33499999999998],[211.054,239.95],[216.113,238.956],[216.727,239.634]],"i":[[1.0609999999999786,-1.3449999999999989],[-0.5959999999999752,0.8520000000000039],[-0.3990000000000009,-0.4259999999999877],[0.6659999999999968,-0.22800000000000864],[0.960000000000008,0.796999999999997],[0.10699999999999932,0.9380000000000166],[-0.38400000000001455,0.7510000000000048],[-1.5209999999999866,-1.274000000000001],[-0.20600000000001728,-0.22999999999998977]],"o":[[0.789999999999992,0.1910000000000025],[0.39099999999999113,0.4170000000000016],[-0.3849999999999909,0.5840000000000032],[-1.1759999999999877,0.4029999999999916],[-0.7139999999999986,-0.5929999999999893],[-0.09499999999999886,-0.8329999999999984],[1.0320000000000107,-2.0180000000000007],[0.22999999999998977,0.19300000000001205],[-1.0550000000000068,1.3330000000000268]]}}},{"ty":"sh","ks":{"a":0,"k":{"c":true,"v":[[214.451,239.993],[212.724,240.516],[212.50699999999998,242.70499999999998]],"i":[[-0.657999999999987,0.9180000000000064],[0.5370000000000061,-0.6270000000000095],[-0.3049999999999784,-0.5799999999999841]],"o":[[-0.5790000000000077,-0.16100000000000136],[-0.4579999999999984,0.5360000000000014],[0.6470000000000198,-0.9029999999999916]]}}},{"ty":"st","o":{"a":0,"k":0},"w":{"a":0,"k":0},"c":{"a":0,"k":[0,0,0,0]},"lc":3,"lj":1,"ml":1},{"ty":"fl","o":{"a":0,"k":100},"r":1,"c":{"a":0,"k":[1,1,1,1]}},{"ty":"tr","o":{"a":0,"k":100},"a":{"a":0,"k":[0,0]},"s":{"a":0,"k":[100,100]},"p":{"a":0,"k":[0,0]},"r":{"a":0,"k":0}}]},{"ty":"gr","nm":"Blog_Artboard 2 shape group","it":[{"ty":"sh","ks":{"a":0,"k":{"c":true,"v":[[196.619,239.634],[193.48,243.60999999999999],[195.408,242.68699999999998],[196.58499999999998,243.93599999999998],[194.76299999999998,245.28699999999998],[191.83899999999997,244.71099999999998],[190.56199999999998,242.34799999999998],[190.80599999999998,240.289],[193.29199999999997,238.22799999999998],[196.03399999999996,238.97699999999998]],"i":[[-0.20199999999999818,-0.22999999999998977],[1.045000000000016,-1.3230000000000075],[-0.6090000000000089,0.943000000000012],[-0.3949999999999818,-0.4189999999999827],[0.7779999999999916,-0.20300000000000296],[0.8600000000000136,0.6899999999999977],[0.11599999999998545,0.9499999999999886],[-0.27000000000001023,0.6670000000000016],[-1.22199999999998,0.2079999999999984],[-0.7949999999999875,-0.6670000000000016]],"o":[[-1.0589999999999975,1.3410000000000082],[0.6069999999999993,0.2050000000000125],[0.39400000000000546,0.41800000000000637],[-0.4379999999999882,0.693000000000012],[-1.061000000000007,0.2769999999999868],[-0.7450000000000045,-0.5970000000000084],[-0.08600000000001273,-0.7019999999999982],[0.46000000000000796,-1.1370000000000005],[1.0269999999999868,-0.17500000000001137],[0.21700000000004138,0.18200000000001637]]}}},{"ty":"sh","ks":{"a":0,"k":{"c":true,"v":[[192.39,242.72],[194.337,240.008],[192.73999999999998,240.394]],"i":[[-0.3049999999999784,-0.7750000000000057],[-0.6440000000000055,0.8959999999999866],[0.48699999999999477,-0.45699999999999363]],"o":[[0.6630000000000109,-0.9240000000000066],[-0.4819999999999993,-0.24199999999999022],[-0.5809999999999889,0.5459999999999923]]}}},{"ty":"st","o":{"a":0,"k":0},"w":{"a":0,"k":0},"c":{"a":0,"k":[0,0,0,0]},"lc":3,"lj":1,"ml":1},{"ty":"fl","o":{"a":0,"k":100},"r":1,"c":{"a":0,"k":[1,1,1,1]}},{"ty":"tr","o":{"a":0,"k":100},"a":{"a":0,"k":[0,0]},"s":{"a":0,"k":[100,100]},"p":{"a":0,"k":[0,0]},"r":{"a":0,"k":0}}]},{"ty":"gr","nm":"Blog_Artboard 2 shape group","it":[{"ty":"sh","ks":{"a":0,"k":{"c":true,"v":[[169.613,237.874],[169.568,237.867],[169.568,236.17399999999998],[169.614,236.46499999999997]],"i":[[0.0020000000000095497,-0.46999999999999886],[0.014999999999986358,0.0020000000000095497],[0,0.5640000000000214],[-0.0010000000000047748,-0.09700000000000841]],"o":[[-0.014999999999986358,-0.0020000000000095497],[0,-0.563999999999993],[0.015999999999991132,0.09700000000000841],[0.0049999999999954525,0.4690000000000225]]}}},{"ty":"st","o":{"a":0,"k":0},"w":{"a":0,"k":0},"c":{"a":0,"k":[0,0,0,0]},"lc":3,"lj":1,"ml":1},{"ty":"fl","o":{"a":0,"k":100},"r":1,"c":{"a":0,"k":[0.4823529411764706,0.5686274509803921,0.6666666666666666,1]}},{"ty":"tr","o":{"a":0,"k":100},"a":{"a":0,"k":[0,0]},"s":{"a":0,"k":[100,100]},"p":{"a":0,"k":[0,0]},"r":{"a":0,"k":0}}]},{"ty":"gr","nm":"Blog_Artboard 2 shape group","it":[{"ty":"sh","ks":{"a":0,"k":{"c":true,"v":[[169.569,241.663],[169.61499999999998,241.657],[169.62699999999998,245.294],[169.569,245.306]],"i":[[0,1.2139999999999986],[-0.014999999999986358,0.0020000000000095497],[-0.003999999999990678,-1.2129999999999939],[0.019000000000005457,-0.003999999999990678]],"o":[[0.014999999999986358,-0.0020000000000095497],[0.003999999999990678,1.211999999999989],[-0.019000000000005457,0.003999999999990678],[0,-1.2150000000000034]]}}},{"ty":"st","o":{"a":0,"k":0},"w":{"a":0,"k":0},"c":{"a":0,"k":[0,0,0,0]},"lc":3,"lj":1,"ml":1},{"ty":"fl","o":{"a":0,"k":100},"r":1,"c":{"a":0,"k":[1,1,1,1]}},{"ty":"tr","o":{"a":0,"k":100},"a":{"a":0,"k":[0,0]},"s":{"a":0,"k":[100,100]},"p":{"a":0,"k":[0,0]},"r":{"a":0,"k":0}}]},{"ty":"gr","nm":"Blog_Artboard 2 shape group","it":[{"ty":"sh","ks":{"a":0,"k":{"c":true,"v":[[169.569,236.071],[169.81799999999998,236.09],[173.481,236.129],[175.313,236.89],[176.34099999999998,241.171],[173.09199999999998,243.411],[171.35699999999997,243.40800000000002],[171.35699999999997,245.293],[169.62599999999998,245.293],[169.61399999999998,241.656],[169.96999999999997,241.63500000000002],[172.96599999999998,241.64300000000003],[174.84099999999998,240.10900000000004],[173.21499999999997,237.90800000000004],[173.10199999999998,237.89400000000003],[170.093,237.89800000000002],[169.613,237.87400000000002],[169.615,236.46500000000003],[169.56900000000002,236.17400000000004]],"i":[[0,0.033999999999991815],[-0.08299999999999841,0],[-1.2199999999999989,-0.03899999999998727],[-0.5099999999999909,-0.46299999999999386],[0.5940000000000225,-1.5150000000000148],[1.4279999999999973,0.04200000000000159],[0.6080000000000041,0],[0,-0.6329999999999814],[0.5619999999999834,0],[0.003999999999990678,1.2129999999999939],[-0.11899999999999977,0],[-0.9970000000000141,-0.043000000000006366],[-0.13700000000000045,0.7939999999999827],[0.9830000000000041,0.07699999999999818],[0.038000000000010914,0.005000000000023874],[1.002999999999986,0.0010000000000047748],[0.1599999999999966,0.008000000000009777],[0.002999999999985903,0.4689999999999941],[0.015999999999991132,0.09700000000000841]],"o":[[0.08299999999999841,0.007000000000005002],[1.2210000000000036,0.01099999999999568],[0.6910000000000025,0.02199999999999136],[1.2410000000000139,1.1270000000000095],[-0.539999999999992,1.3770000000000095],[-0.5629999999999882,-0.016999999999995907],[0,0.6289999999999907],[-0.6059999999999945,0],[-0.003999999999990678,-1.211999999999989],[0.11899999999999977,-0.007000000000005002],[0.9989999999999952,-0.0020000000000095497],[0.9770000000000039,0.04200000000000159],[0.2009999999999934,-1.163000000000011],[-0.038000000000010914,-0.0049999999999954525],[-1.002999999999986,0.0020000000000095497],[-0.1599999999999966,0],[0.0010000000000047748,-0.46999999999999886],[-0.0010000000000047748,-0.09700000000000841],[-2.842170943040401e-14,-0.03400000000004866]]}}},{"ty":"st","o":{"a":0,"k":0},"w":{"a":0,"k":0},"c":{"a":0,"k":[0,0,0,0]},"lc":3,"lj":1,"ml":1},{"ty":"fl","o":{"a":0,"k":100},"r":1,"c":{"a":0,"k":[1,1,1,1]}},{"ty":"tr","o":{"a":0,"k":100},"a":{"a":0,"k":[0,0]},"s":{"a":0,"k":[100,100]},"p":{"a":0,"k":[0,0]},"r":{"a":0,"k":0}}]},{"ty":"gr","nm":"Blog_Artboard 2 shape group","it":[{"ty":"sh","ks":{"a":0,"k":{"c":true,"v":[[185.421,247.973],[185.421,246.18],[186.429,246.17700000000002],[187.778,245.00300000000001],[185.464,245.32100000000003],[183.155,243.27100000000002],[183.615,239.52300000000002],[186.30700000000002,238.18400000000003],[188.54200000000003,239.23400000000004],[189.00200000000004,238.66300000000004],[189.55700000000004,238.45300000000003],[189.58000000000004,238.59100000000004],[189.56000000000003,244.64000000000004],[189.25900000000004,245.91900000000004],[187.46200000000005,247.66900000000004],[186.60100000000006,247.97300000000004]],"i":[[0.3930000000000007,0],[0,0.617999999999995],[-0.3300000000000125,0.016999999999995907],[-0.16899999999998272,0.7650000000000148],[0.7990000000000066,0.16799999999997794],[0.382000000000005,1.100999999999999],[-0.8190000000000168,1.164999999999992],[-1.1230000000000189,-0.027000000000015234],[-0.6340000000000146,-0.6050000000000182],[-0.13300000000000978,0.2109999999999843],[-0.24200000000001864,-0.05299999999999727],[0,-0.049000000000006594],[0.03300000000001546,-2.0160000000000196],[0.16899999999998272,-0.3990000000000009],[0.8489999999999895,-0.3240000000000123],[0.2869999999999777,-0.10099999999999909]],"o":[[0,-0.5869999999999891],[0.3470000000000084,0],[0.7139999999999986,-0.036000000000001364],[-0.7299999999999898,0.4579999999999984],[-1.1539999999999964,-0.242999999999995],[-0.45699999999999363,-1.3149999999999977],[0.6529999999999916,-0.929000000000002],[0.8870000000000005,0.020999999999986585],[0.14699999999999136,-0.17900000000000205],[0.13800000000000523,-0.2189999999999941],[0.007000000000005002,0.04099999999999682],[-0.0010000000000047748,2.015999999999991],[-0.007000000000005002,0.4300000000000068],[-0.3480000000000132,0.8220000000000027],[-0.2839999999999918,0.10900000000000887],[-0.3940000000000623,-2.842170943040401e-14]]}}},{"ty":"sh","ks":{"a":0,"k":{"c":true,"v":[[186.207,239.908],[185.22899999999998,240.25099999999998],[184.595,242.12699999999998],[185.533,243.52599999999998],[187.10199999999998,243.37499999999997],[187.89,241.47299999999998]],"i":[[0.7750000000000057,-0.10199999999997544],[0.2960000000000207,-0.2569999999999766],[-0.06400000000002137,-0.7180000000000177],[-0.5389999999999873,-0.2810000000000059],[-0.5099999999999909,0.396000000000015],[0.08699999999998909,0.782999999999987]],"o":[[-0.35499999999998977,0.03100000000000591],[-0.5900000000000034,0.5120000000000005],[0.05699999999998795,0.6380000000000052],[0.5200000000000102,0.2709999999999866],[0.6380000000000052,-0.4960000000000093],[-0.08199999999999363,-0.7379999999999711]]}}},{"ty":"st","o":{"a":0,"k":0},"w":{"a":0,"k":0},"c":{"a":0,"k":[0,0,0,0]},"lc":3,"lj":1,"ml":1},{"ty":"fl","o":{"a":0,"k":100},"r":1,"c":{"a":0,"k":[1,1,1,1]}},{"ty":"tr","o":{"a":0,"k":100},"a":{"a":0,"k":[0,0]},"s":{"a":0,"k":[100,100]},"p":{"a":0,"k":[0,0]},"r":{"a":0,"k":0}}]},{"ty":"gr","nm":"Blog_Artboard 2 shape group","it":[{"ty":"sh","ks":{"a":0,"k":{"c":true,"v":[[162.392,258.581],[159.444,224.204],[223.061,224.204],[218.845,259.01]],"i":[[0,0],[0,0],[0,0],[0,0]],"o":[[0,0],[0,0],[0,0],[0,0]]}}},{"ty":"st","o":{"a":0,"k":0},"w":{"a":0,"k":0},"c":{"a":0,"k":[0,0,0,0]},"lc":3,"lj":1,"ml":1},{"ty":"fl","o":{"a":0,"k":100},"r":1,"c":{"a":0,"k":[0,0.14901960784313725,0.3333333333333333,1]}},{"ty":"tr","o":{"a":0,"k":100},"a":{"a":0,"k":[0,0]},"s":{"a":0,"k":[100,100]},"p":{"a":0,"k":[0,0]},"r":{"a":0,"k":0}}]},{"ty":"gr","nm":"Blog_Artboard 2 shape group","it":[{"ty":"sh","ks":{"a":0,"k":{"c":true,"v":[[170.221,220.486],[169.44400000000002,219.897],[167.668,217.91199999999998],[165.489,209.509],[166.683,204.82399999999998],[168.04,201.135],[169.071,198.696],[169.516,197.82999999999998],[169.21699999999998,198.755],[168.308,201.236],[167.03799999999998,204.938],[165.891,209.557],[166.331,214.23399999999998],[167.90599999999998,217.74999999999997]],"i":[[0.0660000000000025,-0.06699999999997885],[0.47299999999998477,0.41399999999998727],[0.6570000000000107,0.9200000000000159],[-0.30400000000000205,3.4890000000000043],[-0.45999999999997954,1.4070000000000107],[-0.41399999999998727,1.0389999999999873],[-0.25900000000001455,0.5689999999999884],[-0.025999999999982037,-0.009999999999990905],[0.21399999999999864,-0.5860000000000127],[0.36199999999999477,-0.9869999999999948],[0.44599999999999795,-1.4019999999999868],[0.23599999999999,-1.657999999999987],[-0.37700000000000955,-1.3940000000000055],[-0.5949999999999989,-0.9259999999999877]],"o":[[-0.014000000000010004,0.016999999999995907],[-0.47700000000000387,-0.4089999999999918],[-1.311000000000007,-1.8249999999999886],[0.24500000000000455,-1.718999999999994],[0.4679999999999893,-1.4050000000000011],[0.41499999999999204,-1.038000000000011],[0.2599999999999909,-0.5689999999999884],[0.02600000000001046,0.01099999999999568],[-0.242999999999995,0.6639999999999873],[-0.3779999999999859,1.0490000000000066],[-0.4370000000000118,1.4019999999999868],[-0.15799999999998704,1.6469999999999914],[0.3739999999999952,1.4089999999999918],[1.231000000000023,1.8420000000000414]]}}},{"ty":"st","o":{"a":0,"k":0},"w":{"a":0,"k":0},"c":{"a":0,"k":[0,0,0,0]},"lc":3,"lj":1,"ml":1},{"ty":"fl","o":{"a":0,"k":100},"r":1,"c":{"a":0,"k":[0.10196078431372549,0.1803921568627451,0.20784313725490197,1]}},{"ty":"tr","o":{"a":0,"k":100},"a":{"a":0,"k":[0,0]},"s":{"a":0,"k":[100,100]},"p":{"a":0,"k":[0,0]},"r":{"a":0,"k":0}}]},{"ty":"gr","nm":"Blog_Artboard 2 shape group","it":[{"ty":"sh","ks":{"a":0,"k":{"c":true,"v":[[213.482,208.787],[231.166,199.47400000000002],[223.59,186.84000000000003],[199.975,171.95400000000004],[199.97299999999998,171.95400000000004],[179.63299999999998,172.19400000000005],[172.379,173.86400000000003],[172.393,173.78500000000003],[149.105,200.29500000000002],[165.197,208.76700000000002],[165.553,211.29800000000003],[169.74699999999999,220.31700000000004],[165.06099999999998,251.13700000000003],[217.28799999999998,252.21700000000004],[210.63799999999998,230.14500000000004]],"i":[[0,0],[0,0],[4.632999999999981,6.404999999999973],[9.644000000000005,2.0149999999999864],[0.0010000000000047748,0],[0,0],[1.9809999999999945,-0.8049999999999784],[0,0],[0,0],[0,0],[0,0],[-2.269999999999982,-2.5570000000000164],[0,0],[0,0],[0,0]],"o":[[0,0],[0,0],[-5.479000000000013,-7.574999999999989],[-0.0010000000000047748,0],[0,0],[-2.9000000000000057,0.3120000000000118],[0,0],[-11.038000000000011,2.4339999999999975],[0,0],[0,0],[0.4679999999999893,3.330999999999989],[0,0],[0,0],[0,0],[0,0]]}}},{"ty":"st","o":{"a":0,"k":0},"w":{"a":0,"k":0},"c":{"a":0,"k":[0,0,0,0]},"lc":3,"lj":1,"ml":1},{"ty":"fl","o":{"a":0,"k":100},"r":1,"c":{"a":0,"k":[1,0.7607843137254902,0,1]}},{"ty":"tr","o":{"a":0,"k":100},"a":{"a":0,"k":[0,0]},"s":{"a":0,"k":[100,100]},"p":{"a":0,"k":[0,0]},"r":{"a":0,"k":0}}]},{"ty":"gr","nm":"Blog_Artboard 2 shape group","it":[{"ty":"sh","ks":{"a":0,"k":{"c":true,"v":[[152.971,242.891],[178.84300000000002,249.744],[179.40500000000003,241.986],[155.56300000000005,228.13799999999998],[172.97600000000006,195.81599999999997],[158.36100000000005,188.30799999999996],[140.03800000000004,220.20399999999995],[140.03800000000004,220.20399999999995],[148.66300000000004,241.51999999999995]],"i":[[0,0],[0,0],[0,0],[0,0],[0,0],[0,0],[0,0],[0,0],[-8.917000000000002,-2.8360000000000127]],"o":[[0,0],[0,0],[0,0],[0,0],[0,0],[0,0],[0,0],[-4.436000000000007,8.239000000000004],[0,0]]}}},{"ty":"st","o":{"a":0,"k":0},"w":{"a":0,"k":0},"c":{"a":0,"k":[0,0,0,0]},"lc":3,"lj":1,"ml":1},{"ty":"fl","o":{"a":0,"k":100},"r":1,"c":{"a":0,"k":[1,0.7490196078431373,0.615686274509804,1]}},{"ty":"tr","o":{"a":0,"k":100},"a":{"a":0,"k":[0,0]},"s":{"a":0,"k":[100,100]},"p":{"a":0,"k":[0,0]},"r":{"a":0,"k":0}}]},{"ty":"gr","nm":"Blog_Artboard 2 shape group","it":[{"ty":"sh","ks":{"a":0,"k":{"c":true,"v":[[221.262,188.308],[239.585,220.204],[239.955,233.01600000000002],[239.955,233.01600000000002],[227.45100000000002,240.502],[199.31500000000003,239.708],[198.574,229.476],[223.354,224.731],[206.64700000000002,195.815]],"i":[[0,0],[0,0],[2.0319999999999823,-4.063000000000017],[0,0],[5.268999999999977,0.1490000000000009],[0,0],[0,0],[0,0],[0,0]],"o":[[0,0],[2.2630000000000052,3.938999999999993],[0,0],[-2.3569999999999993,4.715000000000003],[0,0],[0,0],[0,0],[0,0],[0,0]]}}},{"ty":"st","o":{"a":0,"k":0},"w":{"a":0,"k":0},"c":{"a":0,"k":[0,0,0,0]},"lc":3,"lj":1,"ml":1},{"ty":"fl","o":{"a":0,"k":100},"r":1,"c":{"a":0,"k":[1,0.7490196078431373,0.615686274509804,1]}},{"ty":"tr","o":{"a":0,"k":100},"a":{"a":0,"k":[0,0]},"s":{"a":0,"k":[100,100]},"p":{"a":0,"k":[0,0]},"r":{"a":0,"k":0}}]},{"ty":"gr","nm":"Blog_Artboard 2 shape group","it":[{"ty":"sh","ks":{"a":0,"k":{"c":true,"v":[[242.795,253.984],[238.325,256.125],[234.69199999999998,259.498],[235.46999999999997,258.233],[238.09799999999996,255.79],[241.33399999999995,254.243]],"i":[[-0.00899999999998613,-0.04600000000002069],[2.265999999999991,-1.5629999999999882],[0.10300000000000864,0.08100000000001728],[-0.5649999999999977,0.7280000000000086],[-1.1659999999999968,0.7960000000000207],[-0.8819999999999766,0.25499999999999545]],"o":[[0.038000000000010914,0.12600000000000477],[-2.2860000000000014,1.535000000000025],[-0.03999999999999204,-0.024999999999977263],[0.561000000000007,-0.7269999999999754],[1.1670000000000016,-0.7920000000000016],[0.8820000000000618,-0.257000000000005]]}}},{"ty":"st","o":{"a":0,"k":0},"w":{"a":0,"k":0},"c":{"a":0,"k":[0,0,0,0]},"lc":3,"lj":1,"ml":1},{"ty":"fl","o":{"a":0,"k":100},"r":1,"c":{"a":0,"k":[0.10196078431372549,0.1803921568627451,0.20784313725490197,1]}},{"ty":"tr","o":{"a":0,"k":100},"a":{"a":0,"k":[0,0]},"s":{"a":0,"k":[100,100]},"p":{"a":0,"k":[0,0]},"r":{"a":0,"k":0}}]},{"ty":"gr","nm":"Blog_Artboard 2 shape group","it":[{"ty":"sh","ks":{"a":0,"k":{"c":true,"v":[[252.442,255.099],[226.961,261.26099999999997],[201.38500000000002,267.02899999999994],[226.86900000000003,260.86699999999996]],"i":[[-0.025000000000005684,-0.10899999999998045],[14.09699999999998,-3.2939999999999827],[0.025999999999982037,0.10900000000003729],[-14.102000000000004,3.294999999999959]],"o":[[0.025000000000005684,0.10900000000000887],[-14.102000000000004,3.295000000000016],[-0.025000000000005684,-0.10899999999998045],[14.09699999999998,-3.2939999999999827]]}}},{"ty":"st","o":{"a":0,"k":0},"w":{"a":0,"k":0},"c":{"a":0,"k":[0,0,0,0]},"lc":3,"lj":1,"ml":1},{"ty":"fl","o":{"a":0,"k":100},"r":1,"c":{"a":0,"k":[0.10196078431372549,0.1803921568627451,0.20784313725490197,1]}},{"ty":"tr","o":{"a":0,"k":100},"a":{"a":0,"k":[0,0]},"s":{"a":0,"k":[100,100]},"p":{"a":0,"k":[0,0]},"r":{"a":0,"k":0}}]},{"ty":"gr","nm":"Blog_Artboard 2 shape group","it":[{"ty":"sh","ks":{"a":0,"k":{"c":true,"v":[[137.746,258.176],[135.71900000000002,256.88],[130.45300000000003,254.566],[124.76100000000002,253.729],[122.35500000000002,253.75],[122.99100000000001,253.603],[124.75900000000001,253.443],[130.56500000000003,254.17700000000002],[135.87400000000002,256.639],[137.28700000000003,257.714]],"i":[[0.018000000000000682,-0.021000000000015007],[1.2629999999999768,0.771000000000015],[2.164999999999992,0.6269999999999811],[1.4780000000000086,0.014999999999986358],[0.009000000000000341,0.06900000000001683],[-0.4140000000000015,0.06799999999998363],[-0.75,0.026999999999986812],[-2.2120000000000175,-0.632000000000005],[-1.2379999999999995,-0.8449999999999989],[-0.3100000000000023,-0.28300000000001546]],"o":[[-0.04400000000001114,0.053999999999973625],[-1.259999999999991,-0.7719999999999914],[-2.169000000000011,-0.6200000000000045],[-1.480000000000004,-0.018000000000000682],[-0.0040000000000048885,-0.027999999999991587],[0.4129999999999967,-0.07499999999998863],[1.4980000000000047,-0.0589999999999975],[2.210000000000008,0.63900000000001],[0.6210000000000093,0.42099999999999227],[0.31299999999995975,0.27800000000002]]}}},{"ty":"st","o":{"a":0,"k":0},"w":{"a":0,"k":0},"c":{"a":0,"k":[0,0,0,0]},"lc":3,"lj":1,"ml":1},{"ty":"fl","o":{"a":0,"k":100},"r":1,"c":{"a":0,"k":[0.10196078431372549,0.1803921568627451,0.20784313725490197,1]}},{"ty":"tr","o":{"a":0,"k":100},"a":{"a":0,"k":[0,0]},"s":{"a":0,"k":[100,100]},"p":{"a":0,"k":[0,0]},"r":{"a":0,"k":0}}]},{"ty":"gr","nm":"Blog_Artboard 2 shape group","it":[{"ty":"sh","ks":{"a":0,"k":{"c":true,"v":[[122.962,278.748],[123.307,278.728],[124.321,278.709],[128.227,278.672],[142.655,278.60900000000004],[190.804,278.54600000000005],[190.603,278.76000000000005],[190.294,273.81000000000006],[189.66400000000002,263.68300000000005],[189.842,263.87000000000006],[145.48700000000002,258.9340000000001],[132.34400000000002,257.43000000000006],[128.80300000000003,257.0060000000001],[127.88700000000003,256.88700000000006],[127.57700000000003,256.83400000000006],[127.89100000000002,256.84900000000005],[128.811,256.93100000000004],[132.36,257.285],[145.51700000000002,258.668],[189.88700000000003,263.47],[190.05500000000004,263.488],[190.06600000000003,263.657],[190.70000000000002,273.784],[191.00900000000001,278.734],[191.02200000000002,278.94899999999996],[190.80700000000002,278.94899999999996],[142.65800000000002,278.88599999999997],[128.23000000000002,278.823],[124.32400000000001,278.786],[123.31000000000002,278.767]],"i":[[0,0],[-0.22799999999999443,0.007000000000005002],[-0.43200000000000216,0.007999999999981355],[-1.6840000000000117,0.01599999999996271],[-6.094999999999999,0.026999999999986812],[-18.96199999999999,0.024999999999977263],[0,0],[0.10599999999999454,1.6959999999999695],[0.20199999999999818,3.2460000000000377],[0,0],[11.180000000000007,1.2439999999999714],[3.102000000000004,0.3550000000000182],[0.8259999999999934,0.09899999999998954],[0.2220000000000084,0.029000000000053205],[-0.0010000000000047748,0.005999999999971806],[-0.20699999999999363,-0.01599999999996271],[-0.39099999999999113,-0.03499999999996817],[-1.5300000000000011,-0.1519999999999868],[-5.572000000000003,-0.5859999999999559],[-17.617999999999995,-1.907000000000039],[0,0],[0,0],[-0.21699999999998454,-3.468999999999994],[-0.09799999999998477,-1.572999999999979],[0,0],[0,0],[12.234000000000009,0.01599999999996271],[3.4139999999999873,0.014999999999986358],[0.9100000000000108,0.008999999999957708],[0.24499999999999034,0.004000000000019099]],"o":[[0,0],[0.24500000000000455,-0.0049999999999954525],[0.9099999999999966,-0.009000000000014552],[3.414999999999992,-0.014999999999986358],[12.234000000000009,-0.016000000000019554],[0,0],[-0.09800000000001319,-1.5720000000000027],[-0.21600000000000819,-3.468999999999994],[0,0],[-17.611999999999995,-1.9599999999999795],[-5.567000000000007,-0.6370000000000005],[-1.5269999999999868,-0.18299999999999272],[-0.38999999999998636,-0.05099999999998772],[-0.20600000000000307,-0.028999999999996362],[0.0010000000000047748,-0.005999999999971806],[0.22399999999998954,0.01999999999998181],[0.828000000000003,0.08300000000002683],[3.1059999999999945,0.32600000000002183],[11.183999999999997,1.2099999999999795],[0,0],[0,0],[0.20300000000000296,3.245999999999981],[0.10599999999999454,1.6949999999999932],[0,0],[0,0],[-18.96199999999999,-0.024999999999977263],[-6.094999999999999,-0.026999999999986812],[-1.6839999999999975,-0.016000000000019554],[-0.43200000000000216,-0.007999999999981355],[-0.23200000000001353,-0.005999999999971806]]}}},{"ty":"st","o":{"a":0,"k":0},"w":{"a":0,"k":0},"c":{"a":0,"k":[0,0,0,0]},"lc":3,"lj":1,"ml":1},{"ty":"fl","o":{"a":0,"k":100},"r":1,"c":{"a":0,"k":[0.10196078431372549,0.1803921568627451,0.20784313725490197,1]}},{"ty":"tr","o":{"a":0,"k":100},"a":{"a":0,"k":[0,0]},"s":{"a":0,"k":[100,100]},"p":{"a":0,"k":[0,0]},"r":{"a":0,"k":0}}]},{"ty":"gr","nm":"Blog_Artboard 2 shape group","it":[{"ty":"sh","ks":{"a":0,"k":{"c":true,"v":[[256.933,251.502],[199.08499999999998,247.96],[198.47799999999998,246.65],[182.79899999999998,246.96200000000002],[177.69699999999997,246.65],[177.49499999999998,247.068],[124.86499999999998,248.11700000000002],[103.33999999999997,262.699],[116.37899999999998,278.743],[188.08599999999996,278.502],[259.79299999999995,278.743],[271.69499999999994,266.539]],"i":[[8.01600000000002,0.10499999999998977],[0,0],[0,0],[0,0],[0,0],[0.12399999999999523,-0.26200000000000045],[0,0],[0,-8.180000000000007],[-9.400999999999996,0.19200000000000728],[0,0],[0,0],[-0.014000000000010004,6.725999999999999]],"o":[[0,0],[-0.3650000000000091,-0.8269999999999982],[0,0],[0,0],[0,0],[0,0],[-10.492999999999995,0],[-0.132000000000005,7.785000000000025],[0,0],[0,0],[9.401999999999987,0.19099999999997408],[1.1000000000000796,-12.525999999999982]]}}},{"ty":"st","o":{"a":0,"k":0},"w":{"a":0,"k":0},"c":{"a":0,"k":[0,0,0,0]},"lc":3,"lj":1,"ml":1},{"ty":"fl","o":{"a":0,"k":100},"r":1,"c":{"a":0,"k":[0,0.18823529411764706,0.45098039215686275,1]}},{"ty":"tr","o":{"a":0,"k":100},"a":{"a":0,"k":[0,0]},"s":{"a":0,"k":[100,100]},"p":{"a":0,"k":[0,0]},"r":{"a":0,"k":0}}]}],"op":200},{"ty":4,"nm":"Blog-01","ip":0,"st":0,"ind":1,"hix":2,"ks":{"o":{"a":0,"k":100},"or":{"a":0,"k":[0,0,0]},"a":{"a":0,"k":[275,200,0]},"p":{"s":true,"x":{"a":0,"k":275},"y":{"a":0,"k":200}},"rx":{"a":0,"k":0},"ry":{"a":0,"k":0},"rz":{"a":0,"k":0},"s":{"a":0,"k":[100,100,100]}},"shapes":[{"ty":"gr","nm":"Blog-01 shape group","it":[{"ty":"sh","ks":{"a":0,"k":{"c":true,"v":[[424.269,290.261],[424.269,331.84900000000005],[486.478,331.84900000000005],[486.478,290.261]],"i":[[0,0],[0,0],[0,0],[0,0]],"o":[[0,0],[0,0],[0,0],[0,0]]}}},{"ty":"sh","ks":{"a":0,"k":{"c":true,"v":[[461.987,300.104],[448.761,300.104],[445.899,297.24199999999996],[448.761,294.37999999999994],[461.987,294.37999999999994],[464.84900000000005,297.24199999999996]],"i":[[1.5809999999999604,0],[0,0],[0,1.5810000000000173],[-1.580000000000041,0],[0,0],[0,-1.5810000000000173]],"o":[[0,0],[-1.5810000000000173,0],[0,-1.5810000000000173],[0,0],[1.5810000000000173,0],[-5.684341886080802e-14,1.580000000000041]]}}},{"ty":"st","o":{"a":0,"k":0},"w":{"a":0,"k":0},"c":{"a":0,"k":[0,0,0,0]},"lc":3,"lj":1,"ml":1},{"ty":"fl","o":{"a":0,"k":100},"r":1,"c":{"a":0,"k":[1,0.7607843137254902,0,1]}},{"ty":"tr","o":{"a":0,"k":100},"a":{"a":0,"k":[0,0]},"s":{"a":0,"k":[100,100]},"p":{"a":0,"k":[0,0]},"r":{"a":0,"k":0}}]},{"ty":"gr","nm":"Blog-01 shape group","it":[{"ty":"rc","s":{"a":0,"k":[31.105,41.588]},"r":{"a":0,"k":0},"p":{"a":0,"k":[499.3925,311.055]}},{"ty":"st","o":{"a":0,"k":0},"w":{"a":0,"k":0},"c":{"a":0,"k":[0,0,0,0]},"lc":3,"lj":1,"ml":1},{"ty":"fl","o":{"a":0,"k":100},"r":1,"c":{"a":0,"k":[0,0.14901960784313725,0.3333333333333333,1]}},{"ty":"tr","o":{"a":0,"k":100},"a":{"a":0,"k":[0,0]},"s":{"a":0,"k":[100,100]},"p":{"a":0,"k":[0,0]},"r":{"a":0,"k":0}}]},{"ty":"gr","nm":"Blog-01 shape group","it":[{"ty":"sh","ks":{"a":0,"k":{"c":true,"v":[[464.664,288.56],[460.695,292.479],[456.776,288.51],[460.745,284.591]],"i":[[0.014000000000010004,-2.1779999999999973],[2.1779999999999973,0.014000000000010004],[-0.014000000000010004,2.1779999999999973],[-2.1779999999999973,-0.014000000000010004]],"o":[[-0.014000000000010004,2.1779999999999973],[-2.1779999999999973,-0.014000000000010004],[0.014000000000010004,-2.1779999999999973],[2.1779999999999973,0.014000000000010004]]}}},{"ty":"st","o":{"a":0,"k":0},"w":{"a":0,"k":0},"c":{"a":0,"k":[0,0,0,0]},"lc":3,"lj":1,"ml":1},{"ty":"fl","o":{"a":0,"k":0},"c":{"a":0,"k":[0,0,0,0]},"r":1},{"ty":"tr","o":{"a":0,"k":20},"a":{"a":0,"k":[0,0]},"s":{"a":0,"k":[100,100]},"p":{"a":0,"k":[0,0]},"r":{"a":0,"k":0}}]},{"ty":"gr","nm":"Blog-01 shape group","it":[{"ty":"sh","ks":{"a":0,"k":{"c":true,"v":[[431.563,314.618],[449.208,291.328],[459.951,306.039],[467.352,298.259],[481.653,314.939]],"i":[[0,0],[0,0],[0,0],[0,0],[0,0]],"o":[[0,0],[0,0],[0,0],[0,0],[0,0]]}}},{"ty":"st","o":{"a":0,"k":0},"w":{"a":0,"k":0},"c":{"a":0,"k":[0,0,0,0]},"lc":3,"lj":1,"ml":1},{"ty":"fl","o":{"a":0,"k":0},"c":{"a":0,"k":[0,0,0,0]},"r":1},{"ty":"tr","o":{"a":0,"k":20},"a":{"a":0,"k":[0,0]},"s":{"a":0,"k":[100,100]},"p":{"a":0,"k":[0,0]},"r":{"a":0,"k":0}}]},{"ty":"gr","nm":"Blog-01 shape group","it":[{"ty":"rc","s":{"a":0,"k":[37.65,50.091]},"r":{"a":0,"k":0},"p":{"a":0,"k":[456.729,295.9535]}},{"ty":"st","o":{"a":0,"k":0},"w":{"a":0,"k":0},"c":{"a":0,"k":[0,0,0,0]},"lc":3,"lj":1,"ml":1},{"ty":"fl","o":{"a":0,"k":100},"r":1,"c":{"a":0,"k":[0,0.18823529411764706,0.45098039215686275,1]}},{"ty":"tr","o":{"a":0,"k":100},"a":{"a":0,"k":[0,0]},"s":{"a":0,"k":[100,100]},"p":{"a":0,"k":[157.847,750.772]},"r":{"a":0,"k":270.3787835222355}}]},{"ty":"gr","nm":"Blog-01 shape group","it":[{"ty":"rc","s":{"a":0,"k":[43.073,53.876]},"r":{"a":0,"k":0},"p":{"a":0,"k":[456.76349999999996,295.954]}},{"ty":"st","o":{"a":0,"k":0},"w":{"a":0,"k":0},"c":{"a":0,"k":[0,0,0,0]},"lc":3,"lj":1,"ml":1},{"ty":"fl","o":{"a":0,"k":100},"r":1,"c":{"a":0,"k":[0.9607843137254902,0.9607843137254902,0.9607843137254902,1]}},{"ty":"tr","o":{"a":0,"k":100},"a":{"a":0,"k":[0,0]},"s":{"a":0,"k":[100,100]},"p":{"a":0,"k":[157.882,750.808]},"r":{"a":0,"k":270.3787835222355}}]},{"ty":"gr","nm":"Blog-01 shape group","it":[{"ty":"sh","ks":{"a":0,"k":{"c":true,"v":[[472.565,283.934],[468.596,287.853],[464.677,283.884],[468.646,279.96500000000003]],"i":[[0.014000000000010004,-2.1790000000000305],[2.1779999999999973,0.014000000000010004],[-0.014000000000010004,2.1779999999999973],[-2.1779999999999973,-0.014000000000010004]],"o":[[-0.014000000000010004,2.1779999999999973],[-2.1779999999999973,-0.014000000000010004],[0.014000000000010004,-2.1779999999999973],[2.1789999999999736,0.012999999999976808]]}}},{"ty":"st","o":{"a":0,"k":0},"w":{"a":0,"k":0},"c":{"a":0,"k":[0,0,0,0]},"lc":3,"lj":1,"ml":1},{"ty":"fl","o":{"a":0,"k":0},"c":{"a":0,"k":[0,0,0,0]},"r":1},{"ty":"tr","o":{"a":0,"k":20},"a":{"a":0,"k":[0,0]},"s":{"a":0,"k":[100,100]},"p":{"a":0,"k":[0,0]},"r":{"a":0,"k":0}}]},{"ty":"gr","nm":"Blog-01 shape group","it":[{"ty":"sh","ks":{"a":0,"k":{"c":true,"v":[[439.463,309.991],[457.109,286.701],[467.852,301.412],[475.253,293.632],[489.553,310.313]],"i":[[0,0],[0,0],[0,0],[0,0],[0,0]],"o":[[0,0],[0,0],[0,0],[0,0],[0,0]]}}},{"ty":"st","o":{"a":0,"k":0},"w":{"a":0,"k":0},"c":{"a":0,"k":[0,0,0,0]},"lc":3,"lj":1,"ml":1},{"ty":"fl","o":{"a":0,"k":0},"c":{"a":0,"k":[0,0,0,0]},"r":1},{"ty":"tr","o":{"a":0,"k":20},"a":{"a":0,"k":[0,0]},"s":{"a":0,"k":[100,100]},"p":{"a":0,"k":[0,0]},"r":{"a":0,"k":0}}]},{"ty":"gr","nm":"Blog-01 shape group","it":[{"ty":"rc","s":{"a":0,"k":[37.65,50.091]},"r":{"a":0,"k":0},"p":{"a":0,"k":[464.63,291.3275]}},{"ty":"st","o":{"a":0,"k":0},"w":{"a":0,"k":0},"c":{"a":0,"k":[0,0,0,0]},"lc":3,"lj":1,"ml":1},{"ty":"fl","o":{"a":0,"k":100},"r":1,"c":{"a":0,"k":[1,0.7607843137254902,0,1]}},{"ty":"tr","o":{"a":0,"k":100},"a":{"a":0,"k":[0,0]},"s":{"a":0,"k":[100,100]},"p":{"a":0,"k":[170.324,754.076]},"r":{"a":0,"k":270.3787835222355}}]},{"ty":"gr","nm":"Blog-01 shape group","it":[{"ty":"rc","s":{"a":0,"k":[43.073,53.876]},"r":{"a":0,"k":0},"p":{"a":0,"k":[464.6645,291.328]}},{"ty":"st","o":{"a":0,"k":0},"w":{"a":0,"k":0},"c":{"a":0,"k":[0,0,0,0]},"lc":3,"lj":1,